{"classes": ["A", "B", "C", "D", "del", "E", "F", "G", "H", "I", "J", "K", "L", "M", "N", "nothing", "O", "P", "Q", "R", "S", "space", "T", "U", "V", "W", "X", "Y", "Z"], "layers": [{"W": [[0.38652244210243225, 0.20136073231697083, 0.2694310247898102, 1.2564479112625122, -0.35006824135780334, 0.4032970666885376, -0.36983272433280945, 0.49107640981674194, 1.067054271697998, -0.6177859902381897, 0.7865918278694153, 0.06697525084018707, 1.0787147283554077, -0.1998443454504013, 0.3327540457248688, 0.15085245668888092, 1.088620901107788, -0.12481207400560379, -0.7680069208145142, 0.050047360360622406, -0.6159647107124329, -0.45337364077568054, -0.7039355039596558, 1.0448853969573975, -1.3335773944854736, -0.897279679775238, 0.040886104106903076, -0.308815062046051, 0.3445996642112732, -1.496863603591919, 1.4616584777832031, -1.090572476387024, 0.4277413785457611, 0.490913063287735, -0.46903058886528015, 0.2283148616552353, 0.48177868127822876, 0.8809866905212402, -0.3918479382991791, -0.06234383583068848, 0.5166323781013489, -0.49123409390449524, 0.556501567363739, 1.2732045650482178, 0.5171212553977966, -0.811816394329071, 0.9698047041893005, 0.22948800027370453, 0.3102629482746124, -0.5834278464317322, -1.0631657838821411, -0.3583259880542755, -0.8794417977333069, 1.009182095527649, 0.36787956953048706, 0.524351179599762, 0.44452741742134094, -0.23701758682727814, 0.5238329172134399, -0.8757215738296509, -0.24778757989406586, -1.7559731006622314, 0.30356544256210327], [-0.19134636223316193, 0.1691351979970932, -0.1064019426703453, 0.14251311123371124, -0.3827575445175171, -0.2093203067779541, -0.3997771739959717, 0.27084270119667053, 0.13037139177322388, 0.19916661083698273, -0.2642127573490143, -0.45476096868515015, -0.5907421112060547, -0.37699952721595764, 0.195017009973526, 0.1965310424566269, 0.5093157887458801, -0.24013006687164307, -0.39786502718925476, 0.23086604475975037, -0.14467577636241913, 0.15770214796066284, -0.11362694948911667, 0.3062230944633484, -0.34494733810424805, -0.2751307487487793, 0.2192816138267517, 0.2758597135543823, 0.27453097701072693, 0.24090376496315002, 0.49529212713241577, -0.13888336718082428, -0.2852292060852051, 0.586442232131958, -0.12160327285528183, -0.16805793344974518, -0.1748894453048706, -0.2695080041885376, 0.1585477888584137, 0.20268839597702026, 0.1089729592204094, -0.020311715081334114, -0.17395973205566406, -0.14173123240470886, -0.2193250060081482, -0.46760040521621704, -0.0042992546223104, 0.5617323517799377, -0.06249627843499184, 0.4426411986351013, -0.12666773796081543, -0.1154232770204544, 0.13478252291679382, 0.040642522275447845, -0.2517705261707306, -0.06854423880577087, -0.19336973130702972, -0.03145535662770271, -0.07968175411224365, 0.07725507766008377, -0.41959044337272644, -0.18371856212615967, -0.09644737094640732], [-0.23077505826950073, -1.317736029624939, 0.9472604393959045, -0.3335685729980469, 0.40644747018814087, 0.1906912475824356, -1.2864530086517334, 0.3340889513492584, -0.3587568700313568, -0.010249310173094273, -1.5699331760406494, -1.3136875629425049, 1.4403847455978394, 0.11559324711561203, 0.6755735874176025, -1.176985502243042, -0.5711929798126221, 0.06168774887919426, -0.016111064702272415, -0.18890491127967834, 1.201414704322815, 1.4689172506332397, 1.3910927772521973, -1.150275468826294, 0.7642096281051636, -0.4022235870361328, -0.4962715208530426, -1.2886011600494385, 0.021876821294426918, -0.1433878391981125, 0.24965646862983704, 0.37545689940452576, 1.1477227210998535, -1.2108447551727295, 1.46845543384552, 0.7659410238265991, -0.2569073438644409, -1.1733561754226685, 0.7808928489685059, -0.6343821287155151, -1.5392076969146729, 1.563256859779358, 0.45476511120796204, -0.6083491444587708, -0.4078183174133301, 0.17102284729480743, 0.8646995425224304, -0.31706950068473816, -0.6807437539100647, -0.8855557441711426, -1.2511250972747803, 0.077063649892807, 0.855879545211792, -1.5385138988494873, 0.28038617968559265, 0.9671988487243652, 0.24787424504756927, -0.4811628460884094, 0.7832940816879272, 0.8325778841972351, 0.6059092879295349, -0.6983181238174438, -0.4132833778858185], [0.32656729221343994, -0.07961561530828476, 0.04807455837726593, 0.5150650143623352, 1.5804075002670288, -0.11192554980516434, -0.3461793065071106, -1.0380945205688477, 0.22524385154247284, 0.33787471055984497, -0.68194979429245, -0.5968696475028992, -0.2577883005142212, 2.695371389389038, 0.9837701916694641, 0.09229139238595963, -0.6366958022117615, -0.9270859956741333, -0.9086905121803284, -0.5912501215934753, 0.40766632556915283, 1.175338625907898, 0.1675136536359787, -1.0021417140960693, -0.33288028836250305, -0.6574825644493103, 1.350631833076477, 0.4325040578842163, -0.30628180503845215, 0.3743910789489746, -0.502848207950592, -1.320173740386963, 0.8501573801040649, -0.6950764656066895, -0.42317694425582886, -1.3105957508087158, 0.6089609265327454, 0.8918729424476624, 0.3865143060684204, -0.5128143429756165, -1.2408586740493774, -1.0790082216262817, 1.0495753288269043, 0.4005771577358246, 1.0582419633865356, 0.8771741986274719, 0.4382932782173157, 0.16797003149986267, -0.7174202799797058, -0.8507962822914124, -0.7972490191459656, 0.855205237865448, -0.6301252841949463, -0.19652456045150757, -0.6252847909927368, -0.036771032959222794, -0.45470619201660156, -0.9479469060897827, 0.8227967619895935, 0.4214826226234436, 0.45906755328178406, -0.10452136397361755, 0.10472694784402847], [0.07885605841875076, -0.298260360956192, 0.09053527563810349, -1.008836269378662, -0.0005775445024482906, -0.0477815680205822, 0.47372859716415405, -0.031649257987737656, 0.9989867806434631, -0.7039601802825928, 0.5703467130661011, -0.3507785201072693, 0.5323262810707092, 1.5035855770111084, -0.2777020335197449, 0.05357944220304489, -0.3622380495071411, -1.0809756517410278, 0.5514044165611267, -1.034788727760315, 0.775510847568512, 0.7888796925544739, 1.110329270362854, 0.31025758385658264, -0.8438234925270081, 0.5658894777297974, 1.3410632610321045, -0.7677243947982788, -0.2776349186897278, -0.893181562423706, -0.11883535236120224, -0.708800196647644, -0.5656847953796387, -0.5050337910652161, -1.0284371376037598, 0.6974642872810364, 0.5327933430671692, -0.08598113805055618, -0.25876033306121826, -0.08094171434640884, -0.9378094673156738, -1.1483575105667114, 0.45652690529823303, -0.5576269030570984, -0.6997694373130798, 0.10961588472127914, -0.31346559524536133, -0.4388503432273865, 0.2637028396129608, 0.08491826802492142, -0.5766525864601135, -0.2021481692790985, -1.1291232109069824, 0.8182440996170044, -0.26422083377838135, 0.2218114286661148, -0.10645487904548645, 0.2562797963619232, 0.8966991305351257, 0.5672257542610168, -0.6579208970069885, 0.5635815262794495, 0.8863978981971741], [-0.6344667077064514, 0.8380170464515686, 0.6592229604721069, -0.34306278824806213, 0.18412919342517853, -0.191230908036232, -0.24293124675750732, 0.8999718427658081, 1.0534782409667969, -0.5933433771133423, -0.30573222041130066, -0.06021333858370781, -0.9360931515693665, -1.1230545043945312, 0.3720756769180298, 1.0068984031677246, -0.33817604184150696, -0.7636992931365967, -0.5269907712936401, 0.6055045127868652, -0.6953929662704468, 0.38905593752861023, 0.21460548043251038, -0.48155051469802856, 0.8153113722801208, -0.4266781508922577, -0.28271958231925964, -0.2281826138496399, -1.413262128829956, -0.7640657424926758, -0.2571486830711365, 1.4248056411743164, -0.28965339064598083, -0.19349078834056854, -0.23638491332530975, 0.36476027965545654, 1.2713351249694824, 0.0754735991358757, 0.5907446146011353, -0.806891679763794, -0.4578498601913452, 0.5928884148597717, -0.23332393169403076, -0.18704846501350403, 1.2231857776641846, -0.726813554763794, -0.7114266753196716, -0.553422212600708, -0.06681971251964569, 0.24097158014774323, 0.5322214961051941, 0.34537696838378906, -1.1002837419509888, -0.8129344582557678, 0.17395761609077454, 1.077986478805542, 0.5603256225585938, -0.4401297867298126, -0.15270744264125824, -0.8696578145027161, -0.2627389132976532, 0.1958273947238922, 0.3791196346282959], [0.6856003999710083, -1.3491872549057007, 0.2626228332519531, -0.3572811186313629, -0.5117946267127991, 1.4844204187393188, 0.40850624442100525, 0.6673423051834106, -0.6427431106567383, -0.012765530496835709, 0.5945391058921814, -0.21355736255645752, 0.1385045051574707, -0.58436119556427, 0.5714465975761414, 0.9197382926940918, -0.21966803073883057, -0.8354327082633972, -0.774293839931488, 0.2487572282552719, 0.23371151089668274, -0.6830717325210571, -0.3573557436466217, 0.8201203346252441, -0.2737835645675659, 0.04926808550953865, -0.0935409888625145, -0.49096256494522095, -1.9856520891189575, -0.7867093682289124, -0.005998122505843639, 0.5635825395584106, -0.44382041692733765, 0.020375048741698265, 1.014037847518921, 0.382938414812088, 1.237871527671814, -0.4483228921890259, -0.3060469627380371, 0.46957042813301086, -1.745694875717163, -0.9485068917274475, 0.017513234168291092, -0.06216595694422722, -0.7218015193939209, 0.6106356382369995, 0.733494758605957, 0.41387659311294556, -0.2165108323097229, -1.2288357019424438, -0.1705012023448944, 0.004893938545137644, -0.29493218660354614, -0.26153674721717834, -0.5940902233123779, 1.2325671911239624, -0.7082521915435791, 0.47233328223228455, -0.1918725222349167, 0.07112801820039749, -0.41809892654418945, 0.14976204931735992, -0.29138725996017456], [0.315265953540802, 0.15291108191013336, 0.35263416171073914, 0.9124786853790283, -0.07093674689531326, -1.099332332611084, 0.6115867495536804, 1.1968538761138916, -0.7589733004570007, -0.20297424495220184, -0.7479774355888367, -0.49571654200553894, 0.10917177051305771, -0.2855297923088074, 0.8851406574249268, -0.5595548152923584, 1.002159833908081, 0.13824114203453064, -0.7368080019950867, -0.09466813504695892, 0.1200217679142952, 0.29138243198394775, -0.8071414828300476, 0.22414514422416687, -0.4616173803806305, -1.0239628553390503, -0.6351897120475769, 0.6728749871253967, 0.8559849858283997, 1.0724254846572876, 0.5230647921562195, 0.956912636756897, -0.11036317050457001, -0.6089351773262024, 0.721672773361206, -0.35251539945602417, -0.8351643085479736, -0.16736620664596558, 0.6008294224739075, 0.31603243947029114, -0.5052686929702759, -0.14748188853263855, 0.14690044522285461, -0.7213917970657349, -0.6991061568260193, 0.536112368106842, -0.09382813423871994, 0.6028727293014526, 1.0039417743682861, 0.4569821357727051, 0.11541499197483063, 0.2414969652891159, -0.2408718317747116, 0.41299009323120117, 0.0685175359249115, 0.180830717086792, 0.9673697352409363, -0.16912250220775604, -0.36245813965797424, -0.37326955795288086, -0.36761677265167236, 0.40853217244148254, 0.4894283413887024], [0.30671897530555725, 0.4745199680328369, -0.6197642087936401, -0.11509616672992706, -0.32744908332824707, 0.06653036922216415, 0.1905364990234375, -0.2623286843299866, 0.24249401688575745, -0.5580576658248901, -0.1313190460205078, -0.5406569838523865, 0.2829883098602295, -1.1220210790634155, 0.5062201023101807, 0.14033816754817963, -0.2153841257095337, 0.5902481079101562, 0.10954853147268295, 0.5338475704193115, 0.3700422942638397, -0.3872835338115692, 0.1208759993314743, -0.2045477330684662, 0.2810688316822052, -0.15992671251296997, -0.2507294714450836, -0.29746633768081665, -0.14249758422374725, 0.8267750144004822, 0.4448060095310211, 0.21143750846385956, -0.5361754298210144, 0.06395991146564484, -0.38154301047325134, 0.6139305830001831, -0.33013060688972473, -0.08184126764535904, 0.12180344015359879, -0.029227133840322495, 0.5662758946418762, 0.2481079399585724, 0.32474055886268616, 0.6164489388465881, 0.5942729711532593, -0.1663801521062851, -0.16960597038269043, 0.42448344826698303, -0.0765378475189209, 0.15754522383213043, 0.11885138601064682, -0.607570469379425, 0.3276072144508362, 0.21106910705566406, 0.22031532227993011, 0.7791252136230469, 0.3944043517112732, 0.6503092050552368, -0.015441028401255608, -0.6896911859512329, -0.30808985233306885, -0.5567260384559631, -0.7557629346847534], [0.295644611120224, -0.7281571626663208, -0.5554689168930054, -0.5867666006088257, -0.8430781960487366, -0.19461974501609802, 0.1492517739534378, 0.6717264652252197, 0.18616816401481628, -0.6635273098945618, 0.35950925946235657, 0.16275520622730255, -1.071962833404541, 0.17162030935287476, -0.11598151922225952, -0.06961758434772491, 1.0355397462844849, 0.03609733283519745, 0.4880686402320862, -0.7881487607955933, -0.08742637187242508, 0.5475978851318359, 0.22106516361236572, 0.5128118991851807, 1.582761526107788, -0.6142225861549377, 0.38785699009895325, -0.6639337539672852, -0.6463577151298523, -0.0764336809515953, -0.9392865300178528, 0.5312677025794983, 0.10604032129049301, -0.338959276676178, 0.35221388936042786, -0.8327423334121704, -0.033260613679885864, -0.3674643635749817, -0.7295512557029724, -0.7094242572784424, -0.17833098769187927, 0.8368659615516663, 0.778623640537262, 0.6726322770118713, -0.2982722222805023, -0.7394198179244995, 0.8459382057189941, 0.6987910866737366, -0.08682412654161453, -0.06495891511440277, -0.4992660880088806, -0.233054980635643, 0.7675608992576599, 0.0336223766207695, -0.07468968629837036, -0.5365391373634338, -0.13084256649017334, 0.03953258693218231, -0.29101523756980896, 0.08486845344305038, 0.5791622400283813, -0.764427900314331, 0.3897663950920105], [-0.25673261284828186, 0.2269839644432068, -0.019540980458259583, 0.4135153889656067, -0.3229745328426361, 0.10563066601753235, -0.6193904280662537, -0.1663321703672409, -0.27408209443092346, -0.17195941507816315, 0.37301698327064514, -0.3864249289035797, 0.5277684330940247, 0.8606814742088318, -0.4606829583644867, -0.18725737929344177, -0.2996179759502411, 0.06655284017324448, 0.008101104758679867, -0.3528135120868683, 0.6859380006790161, -0.2973201274871826, 0.3790077567100525, 0.11946490406990051, 0.162383571267128, 0.34349051117897034, -0.12607556581497192, -0.24713358283042908, -0.739102840423584, 0.5612373352050781, -0.45192232728004456, 0.07848698645830154, -0.4509865641593933, 0.21202556788921356, 0.10987912118434906, 0.10309980064630508, 0.08854619413614273, -0.10120497643947601, 0.3318067193031311, -0.37671831250190735, -0.7146530151367188, 0.2552889883518219, 0.6203998923301697, 0.38936272263526917, -0.32797691226005554, 0.4482358992099762, -0.0784764438867569, -0.0684034451842308, -0.6135369539260864, -0.06569590419530869, 0.44720688462257385, 0.21582919359207153, -0.8987867832183838, 0.11057168245315552, -0.14626525342464447, 0.6323162913322449, -0.5430236458778381, -0.21820610761642456, -0.4639423191547394, -0.3068710267543793, 0.12916064262390137, 0.6832788586616516, 0.010489331558346748], [0.36196041107177734, -0.08223416656255722, 0.647079348564148, 0.616614043712616, 0.034717075526714325, -0.24258291721343994, 0.8940486907958984, -0.02700072154402733, -0.3345855176448822, -0.07977412641048431, -1.0859302282333374, 0.019880911335349083, -0.5046700239181519, 0.1122012659907341, -0.15937955677509308, -0.672586977481842, 0.055921152234077454, 0.22825469076633453, 0.37399399280548096, 0.1804206520318985, -0.44508394598960876, 0.687707245349884, 0.5231199264526367, 0.4878140389919281, -0.6927545666694641, -0.16652467846870422, 0.014384576119482517, -0.16363954544067383, 0.43389448523521423, 0.5469971299171448, 0.6000094413757324, -0.5084220170974731, 0.6070101857185364, 0.27610158920288086, -0.6809718608856201, -0.5916001200675964, -0.33970391750335693, 0.5163651704788208, -0.7581420540809631, -0.5734443664550781, 0.5301647186279297, 0.6768882274627686, 0.7465462684631348, -0.6758661866188049, -0.3453100323677063, 0.35901689529418945, 0.6503508687019348, 0.2752228379249573, -0.07975638657808304, 0.36721575260162354, 0.23697048425674438, -0.5575329065322876, -0.1447799950838089, 0.767414927482605, -0.3760163486003876, -0.5600419640541077, 0.751035749912262, 0.26211369037628174, 0.2619417905807495, -0.12819212675094604, -0.09564266353845596, 0.925537645816803, -0.3500572144985199], [0.08535464853048325, 0.3615056872367859, -0.6595848202705383, 0.5719031691551208, -0.43326643109321594, 0.2215542495250702, -0.33186861872673035, -0.6443785429000854, -0.40860435366630554, 0.3214491009712219, 0.35277101397514343, -0.39782774448394775, -0.5839686989784241, 1.3498210906982422, 0.6056395769119263, 0.22382257878780365, -0.6042446494102478, -0.06026105582714081, -0.2342212051153183, 0.05408612638711929, -0.35517895221710205, -0.1349133849143982, 0.3109634220600128, -0.08279906958341599, -0.17533187568187714, -0.09709720313549042, 0.0908256396651268, 0.21304067969322205, -0.44684898853302, -0.6906412243843079, 0.36903804540634155, 0.38047367334365845, -0.21891461312770844, 0.584409773349762, -0.25033167004585266, 0.6896156668663025, 0.07993236929178238, -0.6259116530418396, 0.598099410533905, -0.7080349922180176, -0.5134258270263672, -0.3207833468914032, -0.573015034198761, 0.9795211553573608, -0.011122300289571285, 0.2589486837387085, -0.7816632390022278, 0.6485446691513062, -0.30950257182121277, -0.9206186532974243, 0.2683568298816681, 0.4356171488761902, 0.5394043326377869, -0.9524796009063721, -0.37659379839897156, 0.29905495047569275, 0.1611386090517044, 0.27216365933418274, 0.3743979036808014, -0.03383255377411842, 0.3537377119064331, 0.2764023542404175, -0.07612539082765579], [0.09620903432369232, 0.5928872227668762, 0.013398139737546444, -0.255423367023468, -0.31654927134513855, -0.45253849029541016, 0.1443938910961151, 0.3940877914428711, -0.3899309039115906, 0.37039583921432495, -0.3384183645248413, 0.5933918952941895, -0.0398738868534565, -0.8406169414520264, -0.09157603979110718, -0.4545300006866455, 0.07194171100854874, -0.26564764976501465, -0.021242547780275345, -0.24900196492671967, -0.3240845203399658, 0.2762453258037567, -0.8904716968536377, -0.41214945912361145, -0.5232188105583191, -0.33981969952583313, -0.09284888952970505, 0.09021276235580444, -0.4032021462917328, 0.6546363234519958, 0.7058271765708923, 0.13751359283924103, -0.3353976905345917, -0.5700070261955261, 0.3910098075866699, -0.45754411816596985, 0.44936802983283997, 0.6785303354263306, 0.28629249334335327, 0.5812972784042358, 0.4335642457008362, 0.5343254208564758, -0.491954505443573, 0.5824635624885559, -0.2623082995414734, -0.32337626814842224, 0.8496891260147095, 0.4935454726219177, 0.19897058606147766, 0.43628039956092834, -0.5075733065605164, -0.19141307473182678, 0.5687909126281738, 0.5875419974327087, 0.021518835797905922, -0.3412632346153259, -0.005132563877850771, 0.4005664885044098, -0.28975754976272583, 0.5385146141052246, -0.13306215405464172, -0.13419048488140106, 0.3667689859867096], [0.25327733159065247, 0.2935321629047394, -0.14217738807201385, 0.9296453595161438, 0.18837863206863403, -0.2560274004936218, -0.6979857087135315, -0.07960198819637299, -0.1512446403503418, 0.13334691524505615, -0.21016685664653778, -0.08994977176189423, 1.345818281173706, -0.4162721633911133, -0.3162153661251068, -0.45337438583374023, -0.23994125425815582, -0.6794191598892212, 0.46826815605163574, 0.6908949017524719, 0.5536178350448608, -0.256073534488678, 0.34158965945243835, 0.2473105937242508, -1.0139113664627075, 0.2867676317691803, 0.044063542038202286, -0.4480730891227722, -0.8215588331222534, 0.546398937702179, 0.4306361973285675, 0.7292671203613281, 0.7355560660362244, -0.5257967114448547, 0.038658831268548965, 0.4490980803966522, -0.21572209894657135, 0.04400801658630371, -0.3848366141319275, 0.36537274718284607, -0.6295360922813416, -0.10149021446704865, 0.778837263584137, 0.08222515881061554, -0.1507866233587265, 0.5671241283416748, -0.19369803369045258, 0.0817776471376419, 0.9354994893074036, -0.2912725806236267, -0.4428159296512604, -0.2223137468099594, -0.19085024297237396, -0.3603738844394684, -0.4833405613899231, 0.9317562580108643, 0.29150843620300293, -0.34839922189712524, -0.2736249268054962, -0.33519914746284485, -0.4448894262313843, -0.03341839462518692, -0.9001221060752869], [-0.15763455629348755, -0.17774713039398193, -0.21636830270290375, -0.5058349370956421, 0.3299778997898102, -0.6648623943328857, -0.14418287575244904, 0.4017964005470276, 0.10806596279144287, 0.5592029094696045, -0.5817313194274902, -0.3858467936515808, 0.16941508650779724, 0.2516520023345947, 0.20238734781742096, -0.5146006941795349, 0.09806466847658157, -0.37813422083854675, -0.37336522340774536, -0.23773229122161865, 0.3599768877029419, 0.04879608750343323, -0.06636055558919907, 0.015089678578078747, -0.10659345239400864, 0.248184472322464, 0.17527556419372559, -0.004139978904277086, -0.2031554877758026, 0.5641553401947021, -0.22321556508541107, -0.3664131760597229, 0.21907024085521698, 0.5069851875305176, 0.4227848947048187, 0.02152126282453537, 0.09881631284952164, 0.13751554489135742, 0.4012821614742279, -0.38677701354026794, -0.15989501774311066, -0.17609256505966187, 0.08530378341674805, -0.03174172341823578, -0.17783188819885254, -0.16450107097625732, 0.0640711709856987, -0.24041080474853516, -0.4635581970214844, 0.21022318303585052, -0.3638983368873596, 0.2748281955718994, -0.07895880937576294, 0.17468495666980743, -0.37839171290397644, -0.005898997653275728, -0.23293167352676392, -0.2966713309288025, -0.2509971559047699, -0.42180660367012024, -0.1949750930070877, -0.6515840888023376, -0.39639732241630554], [-0.5126647353172302, -0.48112738132476807, 0.051366887986660004, -0.2909078598022461, -0.9603115916252136, 0.25046777725219727, 0.5793536901473999, 0.7430848479270935, -0.5188883543014526, 0.6450533866882324, 0.6298837065696716, 0.926193118095398, -0.881088376045227, -0.6784555315971375, -0.5037322640419006, -0.18275325000286102, 1.0122538805007935, -0.028527358546853065, 0.7154776453971863, -0.6402366757392883, 0.4153413474559784, -0.7118509411811829, 0.6492210030555725, -0.1945566087961197, -0.6437059640884399, -0.9394023418426514, 0.3383021056652069, 1.2283059358596802, 0.5199904441833496, -0.37705519795417786, -0.04183974117040634, 0.01345021091401577, -0.7804015278816223, 0.6121165752410889, 0.25276851654052734, 0.2375398576259613, -0.8423963189125061, -0.39473143219947815, 0.18977278470993042, -0.015867818146944046, -0.1168944388628006, -0.26711195707321167, 0.7691993117332458, -0.3623645603656769, -0.39171740412712097, -0.7295595407485962, 1.2530839443206787, -0.04432902857661247, -0.4779292941093445, -0.202354297041893, -0.5690752863883972, -1.7199714183807373, -1.2801132202148438, 0.8670713305473328, 0.5940635204315186, 0.7741930484771729, -0.47296226024627686, 0.8786196112632751, -0.9502459168434143, 0.6328533887863159, 1.4091414213180542, 0.5557395815849304, 0.421510249376297], [0.9247142672538757, 0.2788514196872711, 0.4268084168434143, 0.17869186401367188, 0.14180181920528412, -0.7592142820358276, 0.2661641836166382, -0.4902088940143585, -0.4894746243953705, -0.5033419132232666, -0.03931880742311478, -0.6036589741706848, -1.1510441303253174, -0.13844160735607147, 0.7387405037879944, 1.2225983142852783, 0.34910792112350464, -0.4141443073749542, -0.6197434663772583, 0.23655687272548676, 0.20565733313560486, -0.809577465057373, 0.2219480276107788, 0.34472694993019104, -0.36775997281074524, -0.5757234692573547, 0.3309418261051178, 0.7549264430999756, 0.5597609281539917, -0.5153731107711792, 0.9358915090560913, -0.5227795839309692, 0.6757510900497437, -0.10755132138729095, 0.6692705154418945, 0.20128287374973297, 0.16618618369102478, 0.13132508099079132, 0.6043002009391785, -0.26518669724464417, -0.6761608719825745, -0.28562140464782715, 0.6411091089248657, -0.5257282257080078, -0.02637980505824089, -0.42414426803588867, 0.5393896102905273, 0.12850338220596313, 0.02070576697587967, -0.25446760654449463, -0.8046084642410278, -0.19722658395767212, -0.30813199281692505, 0.6389052867889404, -0.909101128578186, 0.05678067356348038, 0.5523691177368164, 0.2715102434158325, 0.17614682018756866, -0.9194003939628601, 0.6214017271995544, 0.09589618444442749, -0.7643384337425232], [0.4242992699146271, 0.023078834637999535, -0.6711047887802124, 0.6585232019424438, -0.14492769539356232, -1.210898518562317, 0.19622094929218292, 0.27325040102005005, -0.08143675327301025, -0.51743483543396, 0.20566366612911224, -0.47858309745788574, -0.16315516829490662, -0.9767084121704102, 0.45134174823760986, 0.24395108222961426, -0.6133891344070435, 0.9252761006355286, 0.3352126181125641, 0.2755659520626068, -0.5780448913574219, 0.23196840286254883, 0.7584657073020935, 0.24504601955413818, -0.48050305247306824, 0.5772039890289307, -0.3497135639190674, 0.3898305594921112, 0.4174360930919647, 1.0134540796279907, -0.5691602230072021, 0.9090525507926941, -0.6132786273956299, 0.15362399816513062, -0.37409842014312744, -0.3920052945613861, 0.06523392349481583, 0.016072707250714302, -0.3390587866306305, 0.014789842069149017, 0.3072226941585541, 0.7125523090362549, 0.574312686920166, 0.5182600021362305, 0.7871261239051819, 0.16314511001110077, -0.06872359663248062, 0.3765183091163635, -0.45893582701683044, -1.1860021352767944, 0.40114355087280273, -0.3675262928009033, -0.563922107219696, -0.12915340065956116, 0.15400369465351105, 0.6748275756835938, -0.15119345486164093, 0.7073523998260498, 0.5524133443832397, -0.5021762251853943, -0.5256546139717102, -1.1087572574615479, -0.31236323714256287], [-0.05112149938941002, 0.35520967841148376, -0.10210399329662323, -0.8143062591552734, -0.49327200651168823, 0.015488764271140099, 0.10595005005598068, -0.3736412227153778, -0.29495540261268616, -0.029271140694618225, -0.19389648735523224, 0.5312437415122986, 0.3773611783981323, 0.6826589703559875, -0.5440366268157959, -0.32632943987846375, 0.7506569623947144, -0.002587436232715845, 0.1407913863658905, 0.48727843165397644, 0.29070210456848145, 0.21769830584526062, -0.476429283618927, -0.3769999146461487, 0.41934552788734436, -0.03214102238416672, -0.34974199533462524, -0.12297354638576508, -0.49748316407203674, 0.7857493162155151, 0.29993993043899536, 0.17991720139980316, -0.07658503204584122, 0.4335179626941681, -0.038680724799633026, 0.4342329204082489, 0.7593432068824768, 0.4355320334434509, -0.20639385282993317, -0.42741554975509644, 0.12913015484809875, 0.18723301589488983, 0.08405738323926926, -0.36064645648002625, 0.25126054883003235, -0.3061261475086212, -0.3350088894367218, 0.614978015422821, -0.1433541476726532, -0.7226138114929199, -0.08427982777357101, -0.5652732849121094, -0.02687673643231392, -0.06867486238479614, -0.891006350517273, -0.1081063374876976, 0.07071880251169205, -0.40230560302734375, 0.7409566640853882, 0.010721318423748016, 0.371595174074173, 0.4595279395580292, -0.43377333879470825], [0.058928195387125015, 0.5858386754989624, -0.34508538246154785, -0.026465674862265587, 0.09161005914211273, 0.1880955696105957, -0.09914684295654297, 0.06486819684505463, -0.07778722047805786, -0.28198546171188354, -0.11728684604167938, 0.15209943056106567, -0.03718572109937668, 0.19243167340755463, -0.2698253095149994, 0.2514796257019043, 0.3824046552181244, 0.28303638100624084, 0.027256224304437637, 0.05575929209589958, -0.22795425355434418, -0.19304460287094116, -0.1368873119354248, -0.20681411027908325, -0.4639122188091278, 0.18709027767181396, 0.20884618163108826, -0.376611590385437, 0.2024461030960083, 0.22980563342571259, 0.3731483221054077, 0.14710254967212677, 0.4195968508720398, -0.15431620180606842, 0.23167231678962708, 0.3278241455554962, -0.4790343642234802, -0.2613508701324463, 0.029688308015465736, 0.1911202371120453, -0.0879310742020607, 0.11025168001651764, 0.1375906765460968, 0.036014292389154434, -0.1438295841217041, 0.37548893690109253, 0.1326489895582199, -0.2525465190410614, 0.10413863509893417, -0.1431378573179245, 0.046834010630846024, 0.39557039737701416, 0.23919551074504852, -0.0532870851457119, 0.46745479106903076, -0.05249451845884323, -0.11217093467712402, 0.14709414541721344, -0.10298190265893936, 0.012118689715862274, -0.1876945048570633, 0.2755330502986908, -0.040414292365312576], [-0.03543425723910332, -0.7030429840087891, -1.182652235031128, 0.1695212572813034, 0.3244646191596985, -0.4440048933029175, 0.24557021260261536, -0.6920017600059509, 0.3299955427646637, 0.7763976454734802, 0.4532890319824219, -0.16380678117275238, 0.7281484603881836, -0.006893465761095285, 0.4724520742893219, 0.4269537627696991, -0.3813879191875458, -0.16535963118076324, -0.6826910972595215, 0.13610096275806427, 0.15515601634979248, -0.16979540884494781, -0.3415382206439972, -0.2653431296348572, 0.05486122891306877, -0.5930054783821106, 0.03273850306868553, -0.2895483672618866, -0.3445388078689575, 0.223936066031456, -0.2084982842206955, 0.9088642001152039, -0.3922049105167389, -0.5857499241828918, 0.9799866080284119, -0.1498669981956482, -0.2806294560432434, -0.11650757491588593, 0.11552059650421143, -0.7640664577484131, 0.15556944906711578, 0.2275080531835556, -0.6677884459495544, -0.19734905660152435, -0.5995184779167175, 0.6975682973861694, 0.6762024164199829, 0.08878317475318909, 0.8405910730361938, -0.4300832450389862, -0.5446786880493164, 0.4938128590583801, 0.24151864647865295, 0.5538133978843689, 0.09246867895126343, 0.6976572275161743, 0.4627556800842285, 0.6248310208320618, -0.977316677570343, 0.5482444167137146, -0.5181918144226074, 0.021886704489588737, -0.10795777291059494], [-0.21430623531341553, 2.247192621231079, -1.047372817993164, -1.6123937368392944, -1.000551700592041, 0.057300325483083725, 2.096719741821289, 1.5522558689117432, 0.8344481587409973, 0.6222956776618958, 3.2345166206359863, -0.003435540245845914, -1.0039186477661133, -4.206475257873535, -0.39641401171684265, -0.9033843874931335, -1.8368521928787231, 0.46114689111709595, -0.632651150226593, 1.0944851636886597, -0.6399231553077698, 0.25879475474357605, -1.5169116258621216, -1.3733057975769043, -0.0038348876405507326, -0.22218501567840576, -2.0865354537963867, 0.2910217344760895, -0.5647827982902527, 0.6126254796981812, -0.41922566294670105, 2.8839147090911865, 0.5849322080612183, 1.1610426902770996, 1.230973482131958, 2.498713731765747, -0.24871531128883362, -1.0790259838104248, 1.989443302154541, -0.7562517523765564, -0.03996738791465759, -0.3782285749912262, -0.021864235401153564, -0.3133116066455841, 2.540085792541504, 1.8402436971664429, 0.045082177966833115, 1.87555730342865, -1.8609362840652466, 0.2820075452327728, 1.0804648399353027, 1.653769612312317, -1.1469444036483765, 0.7409026622772217, -0.745719313621521, 0.13753704726696014, -1.169282078742981, -1.3371739387512207, -2.131552219390869, -3.027857542037964, 1.2574968338012695, 1.7913892269134521, -3.8068618774414062], [-0.45300325751304626, -0.29836007952690125, -0.9140936136245728, 0.6739798188209534, 0.675282895565033, 0.9518885016441345, -0.5996152758598328, 0.2530759274959564, 0.8128826022148132, 0.8031710982322693, -0.14716699719429016, -0.7260017395019531, 0.554301381111145, 0.5745265483856201, -0.4894276261329651, -0.449203759431839, -0.322849839925766, 0.9749107360839844, -0.21546615660190582, 0.4792998731136322, 1.0114701986312866, 0.11541324853897095, 0.1856755018234253, 0.28687459230422974, 0.6791763305664062, -0.7748966217041016, 0.7972322702407837, -0.1550857126712799, 0.6070398688316345, -0.025116123259067535, -0.39309176802635193, -0.24445335566997528, 0.14464741945266724, -0.5204105377197266, -0.7789828181266785, -0.5892936587333679, -0.12547333538532257, 0.17121629416942596, 0.23442161083221436, -0.03608454391360283, 1.01997971534729, -0.6400986909866333, -0.5645438432693481, -0.1626574546098709, -0.8698564171791077, -0.6320664286613464, -0.5185557007789612, -0.8191021084785461, 0.323674738407135, 0.8803695440292358, 0.9809679985046387, 0.8635863065719604, -0.2544812858104706, -0.27499517798423767, -0.6366550326347351, 0.39715561270713806, -1.1076130867004395, 0.3470301330089569, 0.18261003494262695, 0.15480118989944458, 0.24070575833320618, -0.47379204630851746, 0.7197323441505432], [0.36697840690612793, 0.4630592465400696, -0.337018221616745, 0.2356468290090561, 0.7030577063560486, 0.0440489798784256, 0.43345823884010315, 0.00026579623227007687, 0.28276005387306213, 0.12104149162769318, 0.569074809551239, 0.5769818425178528, 0.2357666939496994, 0.015917256474494934, -0.05463850498199463, -0.052031707018613815, 0.06261610239744186, -0.1856798380613327, 0.4067976474761963, 0.26353010535240173, -0.46956929564476013, -0.2695406675338745, -0.23230606317520142, -0.5035415291786194, -0.25806599855422974, -0.47704991698265076, -0.46319296956062317, -0.36014246940612793, -0.24736018478870392, 0.6641884446144104, 0.3042607605457306, 0.7434350252151489, 0.0923113003373146, 0.1216927096247673, 0.4687299430370331, 0.056333452463150024, -0.6762439012527466, -0.27704936265945435, -0.15987583994865417, 0.12084309756755829, 0.2157619446516037, 0.3146895468235016, 0.7172577381134033, 0.21443989872932434, -0.1995202898979187, -0.32792335748672485, -0.42285066843032837, -0.2502947747707367, 0.24939239025115967, 0.26582857966423035, 0.8433289527893066, -0.0045807925052940845, -0.14616532623767853, -0.1596432775259018, 0.23301607370376587, 0.14587697386741638, 0.04040447995066643, 0.3870737552642822, -0.02662523463368416, 0.3663651943206787, 0.16611915826797485, -0.6420034170150757, 0.3499393165111542], [-0.103769451379776, -1.1906737089157104, 0.45968425273895264, 0.3532574474811554, 0.4442993998527527, 0.21902912855148315, 0.05657566711306572, -0.940989077091217, 0.7010222673416138, 0.02958822436630726, 1.191597819328308, 0.2125648409128189, -0.05944239720702171, 1.3307597637176514, 0.8975005149841309, -0.1558728814125061, 0.5206037759780884, 0.029520653188228607, -0.49309051036834717, 0.16414223611354828, -0.7133100628852844, -0.34802481532096863, -0.6301944851875305, -0.5496324300765991, 0.9386093020439148, -1.2491129636764526, 1.1352697610855103, -0.8938090205192566, -0.3137745261192322, -0.39262354373931885, 0.8103697896003723, -0.24573133885860443, -0.008120478130877018, -0.2221517711877823, 1.0562012195587158, -0.3120861351490021, -0.08139178156852722, -0.5900737643241882, -1.398130178451538, 1.1070144176483154, -1.252557396888733, -0.7642667293548584, -0.3167385160923004, 1.930109977722168, -0.12205041944980621, -0.9008700847625732, -0.017182037234306335, 1.0714623928070068, 0.853935182094574, 1.062727928161621, 0.04573264718055725, 0.28909730911254883, -2.0535366535186768, 0.10654815286397934, 0.30663126707077026, 1.0411449670791626, -0.2420242726802826, -0.2911272644996643, -0.013442234136164188, -0.23919017612934113, -0.6103268265724182, -2.157961845397949, 0.7274506092071533], [-0.277587354183197, 0.13340692222118378, 0.4680996537208557, 0.7963482737541199, -0.2390923649072647, -0.17141681909561157, -0.07457153499126434, -0.08215226233005524, 0.9962556958198547, -1.1852972507476807, 0.667543888092041, -0.7920692563056946, -0.8301482200622559, -0.5418805480003357, 0.8275948166847229, -0.5027542114257812, 0.4961177110671997, -1.093803882598877, 0.8130139112472534, -0.9254618287086487, 0.5509982705116272, -0.4083179831504822, -0.08845055103302002, -0.12103316187858582, 0.9902037382125854, 0.2514455318450928, -0.8325132131576538, 0.2775544822216034, -0.9560505747795105, 0.9072952270507812, 0.3396059274673462, -0.3193393349647522, -0.7997528910636902, 0.47357651591300964, -0.7729246020317078, 0.3890822231769562, 0.6813676953315735, 0.6621639728546143, 0.2505374550819397, -0.9702382683753967, 0.8783113956451416, -0.20364616811275482, -0.44160404801368713, 0.018418746069073677, 0.7042550444602966, 0.3273158371448517, 0.2922644317150116, 0.7365670800209045, -1.9668580293655396, 0.06942491978406906, -0.5815672278404236, 0.3234902322292328, -0.7357863783836365, -0.1439627707004547, 0.9951722621917725, 1.1806591749191284, -0.6651293039321899, -0.42287248373031616, 0.27476075291633606, 0.7196455001831055, 0.1314862072467804, -0.23484574258327484, -0.3164239823818207], [0.33181998133659363, 0.6868329644203186, -0.4521327018737793, 0.2573120892047882, -0.24640211462974548, 0.913934588432312, -0.19033749401569366, -0.40212923288345337, 0.6894310712814331, 0.17393560707569122, 0.4415370225906372, -0.11375647038221359, -0.03373880684375763, 0.011836430989205837, -0.48269617557525635, 0.19864356517791748, -0.7865959405899048, 0.3250192403793335, -0.3474327325820923, -0.20042771100997925, 0.31378111243247986, -0.7281368970870972, -0.8563803434371948, -0.5046207904815674, 0.34423163533210754, 0.08942453563213348, -0.6790514588356018, 0.21185842156410217, -1.0369855165481567, -0.4853050410747528, 0.6243374347686768, 0.3291873633861542, -0.35575297474861145, 0.06524727493524551, -0.028235452249646187, 0.0026961187832057476, -0.28668662905693054, -0.6409647464752197, 0.27947014570236206, 0.1617407202720642, -0.23496884107589722, -0.42743977904319763, 0.26789137721061707, 0.8121365308761597, 0.5221455693244934, 0.08083128929138184, 0.7688414454460144, 0.3048245906829834, 0.05561961233615875, 0.5052540898323059, 1.0541199445724487, -0.26455897092819214, 0.35430237650871277, 0.13722552359104156, -0.11511977016925812, 0.8024991750717163, -0.3760794401168823, 0.4028317928314209, 0.8756564259529114, -0.3902744650840759, -0.443141371011734, -0.6472870111465454, 0.09245768934488297], [-0.17334187030792236, -0.2616123855113983, 0.19101959466934204, 0.13403500616550446, 0.14149750769138336, 0.1051834300160408, 0.02653195895254612, -0.23601751029491425, -0.19422723352909088, 0.07811323553323746, 0.08736437559127808, 0.011342213489115238, 0.16950193047523499, -0.18664652109146118, -0.12788276374340057, -0.3346356451511383, 0.24757477641105652, 0.08016455173492432, -0.4260019361972809, 0.015880681574344635, 0.05749466270208359, -0.17715288698673248, 0.15705160796642303, 0.13658742606639862, -0.3744272291660309, -0.11777543276548386, -0.03315825015306473, -0.3853040933609009, -0.18881475925445557, 0.31864166259765625, 0.04490809515118599, -0.12097616493701935, -0.0695437416434288, -0.13959424197673798, 0.2848181128501892, -0.06288517266511917, -0.11629665642976761, -0.10544890910387039, 0.1164630874991417, -0.055756259709596634, -0.044353634119033813, -0.009359035640954971, -0.05647885054349899, 0.01555129699409008, 0.16099078953266144, -0.035300493240356445, 0.055464643985033035, -0.17039792239665985, 0.04642166197299957, 0.24535022675991058, 0.07539212703704834, 0.292355477809906, -0.13074854016304016, -0.15144731104373932, -0.13863040506839752, 0.09143053740262985, -0.22765079140663147, 0.1249583512544632, 0.015008005313575268, 0.09626665711402893, 0.1601734608411789, -0.08730698376893997, 0.22263234853744507], [-0.33334898948669434, 0.06083410233259201, 0.10295174270868301, 0.2038474678993225, -0.02145332843065262, -0.6941106915473938, -0.3231133222579956, 0.5224761366844177, -0.28982868790626526, 0.03331391513347626, 0.5614784955978394, 0.37251195311546326, -0.1313503384590149, 0.019093647599220276, 0.6338139176368713, 0.22509123384952545, -0.42574480175971985, -0.7101426720619202, 0.04277161881327629, 0.3782494068145752, -0.31830254197120667, 0.32331404089927673, -0.337990403175354, -0.31585851311683655, -0.39552098512649536, 0.5485566854476929, -0.1904609501361847, 0.02024598978459835, 0.2014973759651184, -0.3703373968601227, -0.5665680766105652, -0.7766508460044861, 0.20568375289440155, 0.07603157311677933, -0.3400353789329529, 0.2671249210834503, 0.3491460382938385, -0.20969384908676147, 0.5634633898735046, -0.07548744231462479, -0.18830347061157227, 0.5272214412689209, 0.39658933877944946, -0.6180251240730286, 0.5517220497131348, 0.1338043361902237, -0.3017461597919464, -0.3342016637325287, 0.00413527199998498, -0.366666704416275, 0.3681492507457733, 0.01869867369532585, -0.0120952557772398, -0.2784475088119507, -0.3878568708896637, -0.1077408567070961, 0.3564043343067169, 0.252615749835968, -0.41529473662376404, -0.0679747611284256, -0.16187863051891327, 0.4777982831001282, -0.246712788939476], [0.17053622007369995, 0.21891678869724274, -0.3847486674785614, -0.1934054046869278, -0.10661979764699936, -0.3672625720500946, 0.4257134795188904, -0.03346015512943268, 0.573035717010498, 0.2023952752351761, 0.195003941655159, -0.36318981647491455, 0.5289413928985596, -0.10517670959234238, 0.6838560104370117, 0.43200182914733887, -0.42672646045684814, 0.2520100176334381, -0.6211368441581726, 0.02519904635846615, -0.35396987199783325, -0.39935606718063354, 0.3389521539211273, -0.42912694811820984, -0.612923800945282, 0.0052721863612532616, 0.18597368896007538, 0.04275672882795334, 0.5327733755111694, -0.12643404304981232, -0.6549777984619141, -0.5533183217048645, -0.0933372974395752, -0.1419573277235031, 0.3556744456291199, -0.06936653703451157, 0.5196523666381836, -0.23162810504436493, 0.5256232619285583, 0.9712210893630981, -0.6553961634635925, 0.0326080322265625, -0.6072115898132324, 0.03325369954109192, -0.4541562795639038, -0.2930928170681, 0.388958215713501, -0.4894082844257355, 0.7496720552444458, -0.2516785264015198, 0.6399024724960327, 0.4056543707847595, 0.18497124314308167, 0.2022528350353241, 0.15782257914543152, 0.12743552029132843, -0.44256463646888733, -0.6239102482795715, 0.2738746702671051, -0.15133565664291382, -0.4613308906555176, -0.35651281476020813, 0.08940750360488892], [-0.22972479462623596, -0.3710658550262451, 0.2046593278646469, -0.3178328275680542, -0.11365659534931183, 0.23213231563568115, 0.10121694207191467, 0.003545041661709547, 0.05083899572491646, -0.10195576399564743, -0.022959578782320023, -0.1810116469860077, -0.28840917348861694, -0.24612559378147125, 0.34762734174728394, 0.12271984666585922, -0.014343919232487679, 0.3311156630516052, 0.10234379023313522, -0.21384501457214355, -0.18210089206695557, -0.10099358856678009, 0.12297508120536804, -0.2552531957626343, -0.03789784014225006, 0.13542525470256805, 0.38168612122535706, 0.27871984243392944, 0.06462854146957397, 0.3738362491130829, 0.3512042164802551, 0.21358880400657654, -0.030318068340420723, -0.37623152136802673, -0.049112118780612946, -0.05024825036525726, -0.18004456162452698, 0.0013739014975726604, 0.14791306853294373, 0.28207629919052124, -0.08412984013557434, -0.19777119159698486, -0.10729321092367172, -0.07256225496530533, 0.3247363269329071, -0.37542077898979187, -0.02727886475622654, -0.05169175937771797, -0.5122745037078857, 0.200124129652977, -0.18584398925304413, -0.10078789293766022, -0.17321042716503143, 0.1496535688638687, 0.06734321266412735, 0.07509291917085648, -0.002426582621410489, 0.09368745237588882, -0.04153391718864441, -0.14915165305137634, -0.3130890130996704, 0.03834976255893707, -0.34978678822517395], [0.07477313280105591, -0.19822701811790466, -0.04902273416519165, -0.13198702037334442, -0.0022397430147975683, 0.2707049548625946, 0.18504898250102997, -0.4442012906074524, 0.47939789295196533, -0.14410246908664703, -0.41087090969085693, 0.08373146504163742, 0.06289082765579224, -0.19760634005069733, 0.6910647749900818, 0.33752089738845825, -0.7879102826118469, -0.26886066794395447, -0.14140675961971283, -0.6204057931900024, -0.228559210896492, -0.4615870416164398, 0.05944788455963135, 0.21820496022701263, 0.022573843598365784, -0.4974502623081207, -0.6276736259460449, -0.13672004640102386, 0.2969394028186798, -0.024906614795327187, 0.17245136201381683, 0.8853914141654968, 0.2511734366416931, 0.08530022948980331, 0.05403248593211174, 0.36858704686164856, 0.1052221953868866, -0.40089282393455505, -0.15595993399620056, 0.15485823154449463, 0.6281285285949707, 0.22853191196918488, -0.19422893226146698, -0.19767755270004272, 0.0025843214243650436, -0.08029793947935104, 0.2632227838039398, 0.011976605281233788, 0.27907297015190125, 0.08781681209802628, 0.642935037612915, -0.25130248069763184, 0.5940523743629456, 0.06167178228497505, -0.1752372831106186, 0.3650248050689697, -0.6206769943237305, 0.36161908507347107, -0.0461580790579319, 0.017475612461566925, -0.003002795623615384, -0.08061483502388, 0.2053598165512085], [-0.07254868745803833, -0.6650909781455994, 0.4624290466308594, -0.05971956625580788, 0.021272527053952217, -0.29137086868286133, 0.5958096981048584, -0.431971937417984, -0.763777494430542, 0.37864381074905396, -0.3977593779563904, 0.2780010998249054, -0.33153036236763, 0.16514883935451508, 0.7699997425079346, -0.2962554693222046, -0.5317026376724243, 0.23180314898490906, -0.051707517355680466, -0.6008731722831726, -0.980326771736145, 0.509574294090271, -0.4175047278404236, -0.3609280586242676, -0.5585067272186279, -0.4312795102596283, 0.3151184916496277, -0.005630729254335165, 0.6626339554786682, 0.0854276567697525, -0.17932891845703125, 0.2741224467754364, -0.267880916595459, -0.1526670753955841, 0.4610327184200287, 0.23440219461917877, 0.31006819009780884, 1.0174920558929443, 0.27152010798454285, 0.10097198188304901, 0.3459661602973938, 0.7689330577850342, -0.08877788484096527, 0.4442969858646393, 0.7720844745635986, 0.1745089590549469, 0.13095560669898987, 0.17512552440166473, -0.6766741275787354, 1.1773709058761597, -0.22150036692619324, 0.2721669375896454, 0.12729722261428833, 0.19468745589256287, 0.35487014055252075, -0.6940745115280151, 0.5953510999679565, 0.39771541953086853, -1.263373851776123, -0.08724084496498108, -0.21320798993110657, 0.08331514894962311, -0.8980072140693665], [0.03822354972362518, -0.27777305245399475, 0.124680295586586, 1.3064815998077393, -0.35591283440589905, -0.9549938440322876, 1.3594762086868286, -0.12261249125003815, -0.18623460829257965, -0.5170057415962219, -0.373485267162323, -0.6338005661964417, 0.8448177576065063, 0.6847232580184937, 0.6092436909675598, 0.9510489106178284, -0.7654887437820435, -0.5213121771812439, -0.3849089741706848, -0.4299876093864441, 0.6288747787475586, 0.2301344871520996, 0.7252342104911804, -0.13993901014328003, -0.9694955945014954, -0.4887324571609497, 0.5745325088500977, 0.7738173604011536, 0.04106289893388748, -0.3953646719455719, -1.0399763584136963, -0.4640645384788513, 0.44321098923683167, -0.590955376625061, 0.43380871415138245, 0.40682679414749146, -0.6164471507072449, 0.24753327667713165, -0.033038899302482605, 0.22471244633197784, -0.5364755988121033, -0.9956966042518616, 0.14575886726379395, 0.6835712790489197, -0.4574984312057495, 0.7087435722351074, -0.652795135974884, -0.5021235346794128, -0.3684752881526947, -0.5989450216293335, 0.6084356904029846, 0.14615465700626373, 0.32340794801712036, -0.9733024835586548, 0.2613472044467926, 0.2906774878501892, 0.41422078013420105, 0.980559766292572, 0.799668550491333, 0.10558929294347763, -0.7798620462417603, -0.3699318468570709, 0.5032938718795776], [-0.07713491469621658, -0.27746182680130005, 0.5930136442184448, 0.5127379894256592, 0.10189797729253769, -0.3633055090904236, 0.39553913474082947, -0.17529481649398804, 0.3623475134372711, -0.42965421080589294, 0.23565563559532166, -0.6032898426055908, -0.47091805934906006, -0.3301819860935211, 0.4265327453613281, 0.742952287197113, 0.1295488327741623, 0.12857727706432343, -0.32050958275794983, -0.2485918253660202, 0.005807338748127222, -0.5795677304267883, 0.49350449442863464, 0.42992404103279114, -1.2050775289535522, -0.35124653577804565, -0.5671473741531372, 0.24279378354549408, -0.29908308386802673, 0.3346977233886719, 0.26757344603538513, 1.0126206874847412, 0.6421792507171631, 0.6649471521377563, -0.5100222826004028, 0.22342073917388916, 0.9963406920433044, 0.2748270332813263, -0.1759728491306305, 0.5368342995643616, -0.3955698013305664, -0.45311659574508667, -0.4604259729385376, 0.44881048798561096, -0.19896343350410461, -0.6802401542663574, -0.28027668595314026, -0.42857712507247925, -0.2931147813796997, 0.14521494507789612, 0.417975515127182, -0.10819189995527267, -0.31400781869888306, -0.1807117909193039, -0.678906261920929, -0.6308206915855408, -0.18655672669410706, 0.6376638412475586, -0.1706165224313736, 0.4179213047027588, -0.1285490095615387, 0.04985279217362404, -0.48880890011787415], [0.6146014332771301, 0.5766803026199341, -0.4784013628959656, 0.3017948269844055, 0.8634710907936096, 1.9512940645217896, 0.2915385067462921, -0.7031704783439636, 0.10384784638881683, -0.45870736241340637, 0.48582541942596436, -0.14949627220630646, -0.04153947904706001, 0.2726435661315918, -0.5475051403045654, -0.30482614040374756, 0.8030953407287598, -0.4586566686630249, 0.4185881018638611, -0.08177608996629715, 0.10258348286151886, 0.6468362808227539, 1.2309017181396484, 0.6138299703598022, -0.5380734801292419, 0.04402460157871246, 1.1009418964385986, 0.4162369668483734, 0.450226753950119, -0.62705397605896, -0.9609727263450623, -0.8167540431022644, -0.3612526059150696, -0.019899260252714157, -0.48822250962257385, -0.6726192831993103, 0.21355962753295898, -1.028109073638916, -0.5217713117599487, -0.5551948547363281, -0.6928403377532959, 0.31038007140159607, 0.5081624388694763, 0.5330466628074646, 0.17281197011470795, 0.6133376955986023, 0.610478401184082, -0.5599368810653687, -0.12596513330936432, -0.37677350640296936, 0.08276034146547318, -0.4592170715332031, -0.8629928231239319, -1.0014619827270508, 0.9851979613304138, 0.9927510619163513, 0.5555701851844788, -0.009454687125980854, -0.40362873673439026, 0.3286029100418091, -0.7017587423324585, -0.9374703764915466, -0.10867156833410263], [-0.24441668391227722, -0.8598014712333679, 0.5134165287017822, 0.6894245743751526, -0.4342802166938782, 0.2609685957431793, 0.11259191483259201, -0.1838679015636444, 0.031014688313007355, 0.5293516516685486, -0.041315555572509766, -0.518975019454956, -0.47578081488609314, 0.6306958198547363, 0.03069230727851391, -0.12614578008651733, -0.06842591613531113, -0.22829656302928925, -0.1259726881980896, -0.5270640254020691, 0.13160340487957, 0.35500767827033997, 0.3057207763195038, -0.12500184774398804, 0.41115719079971313, 0.20919013023376465, 0.2525765299797058, -0.028135068714618683, 0.1309102475643158, -0.03433519974350929, -0.5951141715049744, -0.03473198413848877, -0.0652485340833664, 0.589242696762085, 0.4762112498283386, 0.24612180888652802, 0.7854795455932617, -0.4766232371330261, 0.5929569005966187, 0.4533018469810486, -0.08426106721162796, -0.6592062711715698, -0.35020071268081665, -0.010827584192156792, 0.04760494455695152, -0.7826786041259766, 0.105881467461586, -0.09365852177143097, -0.2701798975467682, -0.516765296459198, 0.025965193286538124, -0.7283366322517395, -0.38989606499671936, -0.15500974655151367, 0.2919396460056305, 0.7881694436073303, -0.39432239532470703, 0.11967740207910538, -0.06072571128606796, -0.13426920771598816, -0.09431936591863632, -0.16446885466575623, -0.03137838840484619], [-0.4996897280216217, -0.7721419930458069, 0.18390512466430664, 0.1404547393321991, -0.27909350395202637, -0.11451376229524612, -0.9730738401412964, 0.38693851232528687, -0.21701496839523315, 0.2855091094970703, 1.1829559803009033, -0.41185155510902405, 0.39994674921035767, -0.36858922243118286, -0.9411485195159912, 0.037772711366415024, -0.17058932781219482, 0.1759173572063446, 0.6237348318099976, -0.14998196065425873, -0.5689486861228943, 0.18749921023845673, -0.5909257531166077, 1.0254887342453003, -0.6336044073104858, 0.5560803413391113, -0.4082140326499939, -0.702349066734314, -0.524899959564209, 0.007929008454084396, 0.6195604801177979, 0.8948842883110046, -0.07745721191167831, -0.16453929245471954, 0.09236730635166168, -0.1346493363380432, 0.05080805718898773, -1.2185150384902954, -0.5831757187843323, 0.6360337734222412, -1.134718418121338, 0.3112490177154541, 0.01566607691347599, 0.6467537879943848, 0.7580690383911133, -0.5943294763565063, 0.11860259622335434, 0.17122945189476013, 0.25557079911231995, -1.06649649143219, 0.2653546631336212, -0.5366105437278748, 0.16399088501930237, 0.15806348621845245, -0.1273486167192459, 0.7054184675216675, -0.30229872465133667, 0.7392712235450745, 1.105556607246399, -0.09543699771165848, -0.5545487403869629, -0.19310076534748077, 0.4296957850456238], [0.5070787668228149, -0.1075928807258606, 0.08213610202074051, 1.1573578119277954, -0.10171807557344437, 0.7493612766265869, 1.074398159980774, 0.2478145956993103, -0.28753453493118286, 0.40269336104393005, -0.1624518185853958, 0.6199858784675598, -2.003357410430908, -0.12324891239404678, -0.7614163160324097, 0.015252737328410149, 0.05806726962327957, -0.3871113657951355, -0.5629685521125793, 0.3378849923610687, 0.5780036449432373, 0.10860555619001389, -0.8723509907722473, -0.21241170167922974, -0.2909450829029083, 0.4598264694213867, -0.25123077630996704, -0.004604090936481953, -1.0690711736679077, -0.22899259626865387, 0.6801959872245789, 0.474295973777771, 0.3045464754104614, -0.35941606760025024, 0.7561305165290833, 0.4365106523036957, -0.6110349893569946, -0.37499284744262695, 0.17489364743232727, 0.49765580892562866, 0.0320538692176342, 0.6940057873725891, -0.014665527269244194, 0.8381295204162598, -0.29893913865089417, -0.23531319200992584, -0.21684758365154266, -0.5485021471977234, -0.38438189029693604, -0.5919175744056702, 0.4758351445198059, -0.10962498933076859, -0.3335939049720764, -0.8278088569641113, 0.7414405345916748, -0.16444440186023712, 0.3376498222351074, 0.7653086185455322, -0.5814680457115173, -0.15347406268119812, 0.7648525834083557, 0.8651129007339478, -0.058586236089468], [0.3702290952205658, -0.07407526671886444, -0.5411273837089539, 0.23909345269203186, 0.4172079563140869, 0.18157249689102173, -0.1036740317940712, 0.18591438233852386, 0.2563522756099701, 0.2628350853919983, 0.49978339672088623, -0.39327314496040344, -0.13867072761058807, -0.02988716959953308, 0.27913814783096313, -0.15215331315994263, 0.06401781737804413, 0.14879921078681946, -0.0017224093899130821, -0.10571448504924774, 0.1753193736076355, 0.18110379576683044, -0.568939745426178, 0.1251833140850067, 0.07254283875226974, -0.34043949842453003, -0.5054931640625, -0.24838553369045258, -0.4358944892883301, 0.22105562686920166, 0.16031284630298615, -0.10698142647743225, 0.20832693576812744, -0.2540893256664276, 0.1348397582769394, -0.4187726080417633, -0.04323865845799446, 0.45590364933013916, 0.32833394408226013, -0.1191929280757904, -0.19346386194229126, 0.3569609820842743, 0.18760935962200165, -0.39826586842536926, -0.25821539759635925, -0.01790231093764305, -0.30335015058517456, 0.3512480854988098, -0.05530734732747078, 0.0766257792711258, 0.1252107322216034, 0.20782257616519928, -0.04986094310879707, 0.4380570948123932, 0.19869370758533478, -0.5542317032814026, 0.021998606622219086, -0.3922840356826782, -0.27889254689216614, -0.0014855365734547377, 0.0991785079240799, 0.36898893117904663, 0.3478754460811615], [-0.877582311630249, -0.34328070282936096, -0.40677839517593384, -0.08880415558815002, -0.23945428431034088, 1.2765449285507202, -0.6053863763809204, -1.1644477844238281, 0.3636619746685028, 0.442508339881897, 0.07002989202737808, 0.6956408619880676, -0.21234406530857086, 1.2639397382736206, 0.653028130531311, 0.6267504096031189, 0.31939855217933655, -1.1932237148284912, -0.37600240111351013, 0.2371983379125595, 0.2550215423107147, -0.19473505020141602, 0.7040010690689087, -0.3293454945087433, 0.25801530480384827, 0.46509087085723877, -0.5253250598907471, 0.8046408295631409, 0.5927451252937317, 0.22999036312103271, -0.8626114726066589, -0.8241875171661377, -0.1520865112543106, 0.8735108971595764, -0.029171830043196678, -0.0014019050868228078, -0.894359827041626, 0.13930010795593262, -0.7702096104621887, -1.0012385845184326, 0.7613849639892578, -1.1463204622268677, 0.8555044531822205, -1.0210567712783813, 0.5332818627357483, 0.5399983525276184, -1.5059067010879517, 0.5381062030792236, -0.17729800939559937, 0.4361896812915802, 0.8475092053413391, -0.42256417870521545, 0.2533538043498993, 0.4073513448238373, 0.06324789673089981, -0.10763198137283325, 0.8094058632850647, -0.4803815484046936, -0.3046472370624542, 0.20457032322883606, 0.45148569345474243, -0.45294389128685, -0.5579505562782288], [-0.5736566185951233, -0.3056059777736664, -0.2556995153427124, 0.0686350092291832, 0.11155101656913757, 0.7987812757492065, 0.36074450612068176, -0.18729862570762634, 0.15060532093048096, -0.48137813806533813, 0.44343170523643494, 0.12451246380805969, 0.18985284864902496, -0.39677220582962036, 0.03515058010816574, -0.04700450599193573, -0.5493837594985962, -0.46949246525764465, 0.06629983335733414, -0.2838292717933655, -0.6306697726249695, 0.4803074300289154, 0.1954093724489212, -0.264265239238739, -0.08685281872749329, 0.6600944399833679, -0.4112396538257599, -0.2886730134487152, -0.8526130318641663, -0.25341248512268066, -0.049648020416498184, -0.34420138597488403, 0.40262576937675476, -0.6050388216972351, 0.3503186106681824, -0.3298027217388153, -0.254925936460495, -0.106656014919281, -0.08861378580331802, 0.5392510294914246, -0.9230288863182068, -0.2532343566417694, -0.5869925022125244, 0.41359806060791016, 0.5942322611808777, 0.44759413599967957, 0.11359510570764542, -0.05380432680249214, 0.46097108721733093, 0.1488589495420456, 0.805006742477417, -0.4460624158382416, -0.7883831858634949, -0.6985586285591125, 0.4049775302410126, 0.1856178641319275, -0.5286818742752075, -0.14127127826213837, -0.49473777413368225, -0.04791107028722763, 0.035158298909664154, -0.6297490000724792, 0.08213406056165695], [-0.6642324924468994, -0.2357185184955597, -0.3088196814060211, -0.46811333298683167, 0.4352818429470062, 0.5809997320175171, 0.06344229727983475, -0.05013558268547058, 0.7823024392127991, 0.2874465584754944, -0.08018462359905243, 0.27266672253608704, 1.2123169898986816, 0.8227596282958984, -0.07739420980215073, -0.28558456897735596, -0.8407523036003113, 0.21456268429756165, -0.8584384322166443, -0.37942951917648315, -0.23552946746349335, 0.27460160851478577, -0.2184472531080246, -0.21753756701946259, 0.5759018063545227, -0.011370399966835976, -0.36771392822265625, 0.40155383944511414, 0.3741458058357239, 0.42211514711380005, -0.3956475853919983, -0.11256803572177887, -0.5755777359008789, -0.4163062274456024, 0.15189656615257263, 0.23590610921382904, 0.32349681854248047, -0.842154324054718, 0.6202502846717834, -0.4672556519508362, 0.5616897344589233, 0.5717712044715881, -0.09614814817905426, 0.7135316729545593, 0.34186697006225586, 0.05510050058364868, -0.2107086479663849, 0.7089468240737915, -0.014795822091400623, 0.40940460562705994, 0.016888916492462158, 0.5458120107650757, 0.6488370299339294, -0.5716878175735474, 0.3887835144996643, -0.35836541652679443, -0.39845457673072815, -0.8503052592277527, 0.4416709244251251, -0.30642834305763245, -0.4082687199115753, -0.1932116448879242, 0.5311940312385559], [-0.6627329587936401, 0.6751860976219177, 0.5091272592544556, 0.36694222688674927, -1.097701907157898, 0.8640695214271545, -0.6587677001953125, -1.0832605361938477, 0.24344085156917572, -0.4695662558078766, 0.9471826553344727, -0.4036198854446411, 0.20386603474617004, 0.8114059567451477, -0.7395884394645691, 0.8113863468170166, -0.055206816643476486, -0.6625330448150635, -0.601507306098938, -0.06235760077834129, -0.5685334801673889, -0.845508337020874, 0.45175260305404663, -0.08692248165607452, 1.37185800075531, 1.2351759672164917, 0.995205283164978, 0.13857831060886383, 0.9209701418876648, 0.8545449376106262, 0.9387937784194946, -1.2453181743621826, -0.08844830095767975, -1.1799346208572388, -0.5598393082618713, -0.4591326117515564, 0.9718809723854065, 0.21345220506191254, -0.3032693862915039, -1.0909463167190552, -0.7855122685432434, 0.028432652354240417, -0.5511780977249146, -1.15996253490448, 1.2248231172561646, -0.18525749444961548, -1.1212116479873657, 0.7599625587463379, 1.122928500175476, -0.32963308691978455, -0.2126859724521637, 0.5161354541778564, -0.7940294146537781, 0.3590843975543976, 0.33053237199783325, -0.20740613341331482, 1.3007595539093018, -0.5867890119552612, 0.6099739670753479, -0.9815415143966675, -0.7706480622291565, 1.536900281906128, -1.3151687383651733], [0.022658027708530426, 0.9370443224906921, -0.9947585463523865, -0.6352049708366394, 0.41247546672821045, 0.353423148393631, -0.06801590323448181, 0.8123733401298523, 0.2175852209329605, 0.1566677838563919, -0.7318238019943237, 1.0980806350708008, 0.04336267337203026, -0.15940645337104797, 0.9012227654457092, -0.960249662399292, 0.8981569409370422, -0.36606088280677795, -0.11695616692304611, 0.6977662444114685, 0.48910021781921387, 0.2792453467845917, -0.7900431752204895, -0.767610490322113, 0.05492483079433441, 0.19451381266117096, -1.030666470527649, 0.9238243699073792, 0.6437554359436035, -0.4596589207649231, 0.234152153134346, 0.427552729845047, -0.3216829001903534, 0.4703197181224823, -0.8553557395935059, 0.45112454891204834, 1.0703953504562378, 1.0275883674621582, 0.4681902527809143, -0.4982664883136749, 0.460206001996994, 0.8613285422325134, 0.07277315109968185, -0.9064934849739075, 0.3552359640598297, -0.5091596841812134, -1.0615886449813843, -1.0394017696380615, -0.8841419219970703, -0.36592814326286316, 0.864477813243866, -0.06587226688861847, -0.8342649340629578, -0.14019782841205597, 0.19728107750415802, -0.6920035481452942, -0.26171624660491943, -0.3609309196472168, 0.022635340690612793, -0.029693888500332832, 0.13188804686069489, 1.7361030578613281, 0.531147837638855], [0.7385641932487488, -0.3274170458316803, -0.8735555410385132, 0.09803887456655502, -0.36182543635368347, 0.3208034634590149, 0.062495142221450806, -0.48207640647888184, -0.75254887342453, 0.28954723477363586, 0.4655463695526123, 0.6526463627815247, -0.7052911520004272, 0.6967633366584778, -0.14398057758808136, -0.34259629249572754, -0.8423702716827393, 0.4096579849720001, -0.252397358417511, 0.4981408715248108, 0.17331257462501526, 0.3572295904159546, 0.4161669611930847, 0.31860530376434326, 0.302433043718338, 0.3227512240409851, -0.4086447060108185, -0.4283599555492401, -0.5058475732803345, 0.38230860233306885, 0.7154064178466797, 0.5747066736221313, -0.384166955947876, -0.10812743008136749, -0.739038348197937, 0.4061669707298279, -0.6871083974838257, -0.5536426901817322, 0.6231046915054321, -0.01775071583688259, -0.7908661365509033, -0.7742534875869751, -0.5992573499679565, 0.9639410972595215, -0.7235246896743774, 0.567376434803009, 0.34742820262908936, 0.2702547311782837, -0.3102158308029175, -0.14958369731903076, 0.6675857305526733, 0.3590245544910431, -0.05437092110514641, -0.9359810948371887, 0.42100000381469727, 0.7405315637588501, -0.5144713521003723, 0.44262436032295227, -0.5035766959190369, -0.24701683223247528, 0.1465872973203659, -0.649081289768219, 0.10791249573230743], [-0.2338019609451294, 0.6127484440803528, 0.36178556084632874, -0.22416207194328308, -0.11774168908596039, -0.4028605818748474, -0.7294579744338989, -0.11716968566179276, -0.5853003859519958, 0.6669453978538513, -0.36666569113731384, -0.35100823640823364, -0.32775357365608215, -0.9384109973907471, -0.32364797592163086, -0.12718066573143005, -0.015821028500795364, 0.854649543762207, 0.23395469784736633, 0.9781503677368164, 0.4531821310520172, -0.07844715565443039, 0.7256870865821838, -0.5805492997169495, 0.24076026678085327, 0.45981061458587646, -0.42528557777404785, -0.08178909868001938, -1.0539649724960327, -0.4815707802772522, -0.16572879254817963, 0.3198873698711395, -0.013551518321037292, 0.07350042462348938, -0.7123882174491882, -0.3934701383113861, 0.4233591556549072, -1.126266360282898, 0.23760342597961426, 0.6832311153411865, 0.09501571953296661, 0.6013619899749756, -0.7116907238960266, 0.393745481967926, 0.08604565262794495, -0.02025427110493183, 0.7267009615898132, 0.1400824338197708, -0.3208151161670685, -1.0571330785751343, 0.9766448736190796, 0.08007647097110748, 0.6107323169708252, 0.4744934141635895, -0.6876640319824219, 0.5917685627937317, 1.0756189823150635, 0.7772054076194763, 0.4762725830078125, -0.4652499556541443, -0.19470489025115967, 0.46056801080703735, -0.49450594186782837], [-0.47459185123443604, -0.4423176050186157, 0.3939175605773926, 0.01988113485276699, -0.9509012699127197, -0.2656424641609192, 1.0013536214828491, 0.009002887643873692, 0.9371182322502136, -0.5828158259391785, 0.8887905478477478, 0.0968513935804367, -0.2656651437282562, 0.2479572743177414, 0.014971647411584854, -0.5529409646987915, -0.11644420772790909, 0.15985162556171417, -0.8419656157493591, 0.11380095034837723, -0.9748257398605347, 0.5213221311569214, 0.3881300091743469, 0.3296962082386017, -0.5564806461334229, -2.1889333724975586, 0.5375353097915649, 0.99753737449646, 1.7407314777374268, 0.14461645483970642, 0.5341391563415527, 1.6399019956588745, 0.19623585045337677, -0.5125988125801086, -0.9600096344947815, 0.5416250824928284, 0.47329580783843994, 1.0743780136108398, -0.7158628702163696, 0.6141064167022705, 0.41887274384498596, -0.45295250415802, 0.6461414694786072, -0.44404083490371704, 0.7792865037918091, 0.4923970699310303, -0.28877532482147217, 0.6341325044631958, -0.293294757604599, 0.31164461374282837, -0.27225416898727417, -0.960062563419342, 0.2976847290992737, 0.24755020439624786, -0.06720375269651413, -0.47767382860183716, -0.24162089824676514, 0.3028401732444763, -0.6186725497245789, -1.2521671056747437, -0.4866451621055603, -0.8671187162399292, 0.01274370402097702], [0.6588487029075623, 0.3607335388660431, 0.1907125860452652, 0.3720569610595703, -0.16895925998687744, -0.15216800570487976, 0.4141908288002014, 0.7155491709709167, 0.2634788453578949, -0.6660044193267822, 0.7015717625617981, -0.5595071315765381, 0.22892148792743683, 0.03592584654688835, 0.2782772183418274, -0.6255496144294739, -0.2724669873714447, 0.3083364963531494, 0.5671879649162292, -0.0024667445104569197, 0.7376374006271362, -0.16887840628623962, -0.7317854762077332, -0.08156983554363251, 0.03031446412205696, -0.43613797426223755, 0.6478446125984192, -0.2938355803489685, -0.27077803015708923, -0.6819142699241638, 0.4436512887477875, -0.0854070782661438, -0.6837140321731567, -0.17557838559150696, 0.08861791342496872, 0.22641903162002563, -0.2114260196685791, 0.7064894437789917, -0.02547379769384861, -0.10461574792861938, -0.33648353815078735, 0.17556007206439972, 0.5104768872261047, -0.29576000571250916, 0.5754225850105286, 0.5504962801933289, -0.5803782343864441, 0.03257664293050766, -0.30543214082717896, 0.29956063628196716, -0.005485979840159416, 0.30275920033454895, -0.2594485878944397, -0.42056789994239807, -0.4724601209163666, -0.7946190237998962, -0.2623673677444458, 0.3029464781284332, 0.071381114423275, 0.6269371509552002, -0.490681916475296, 0.1681363433599472, -0.554938018321991], [-0.5086248517036438, 0.12706588208675385, 0.18720977008342743, 0.228941410779953, -0.757573664188385, 0.7541269063949585, -0.31006720662117004, -0.08103436231613159, 0.6359911561012268, -0.18691086769104004, -0.4229678213596344, 0.3592894673347473, -0.26229390501976013, 0.01879071816802025, -0.36913785338401794, 0.3335779011249542, -0.38371697068214417, -0.16638855636119843, 0.3198217749595642, -0.23821839690208435, 0.6101067066192627, 0.3142206370830536, 0.4333452582359314, -0.2711792290210724, -0.00714508444070816, -0.22234922647476196, 0.4350025951862335, -0.43470868468284607, 0.16599610447883606, 0.09144427627325058, -0.34813302755355835, -0.614329993724823, 0.3670159876346588, -0.28061506152153015, 0.2615923583507538, -0.038880493491888046, 0.10621709376573563, -0.09403807669878006, -0.37252509593963623, -0.10872703045606613, -0.4885987639427185, 0.5594106912612915, -0.35230886936187744, 0.17331382632255554, -0.07702960073947906, 0.2172410786151886, 0.528093695640564, -0.5753976702690125, 0.23455089330673218, 0.5232656002044678, -0.9515931010246277, 0.3648652732372284, 0.2480546087026596, 0.8685814738273621, -0.4913206100463867, 0.21259278059005737, 0.6119683384895325, 0.3851216435432434, 0.13934674859046936, -0.3320246934890747, 0.16160035133361816, 0.6720213294029236, -0.47543713450431824], [-0.061138492077589035, 0.5933305025100708, 0.2882727384567261, 0.28146421909332275, 1.0484843254089355, -0.8399449586868286, -0.19387950003147125, 0.04900123551487923, 0.04603945463895798, 0.18870189785957336, -0.2972816526889801, -0.3556504547595978, -0.5435217618942261, -0.597004771232605, 0.5920031070709229, -0.45161664485931396, 0.11807319521903992, -0.29120999574661255, -0.06918488442897797, -0.18113736808300018, 0.43881142139434814, 0.23660306632518768, 0.6730831265449524, 0.38136428594589233, 1.141868233680725, -0.6044960618019104, -0.30778199434280396, -0.6630263924598694, -0.48194199800491333, -0.044026631861925125, 0.07848238199949265, 0.5541000366210938, 0.22050881385803223, -0.5226514935493469, -0.41698983311653137, 0.42651742696762085, 0.25958359241485596, 0.2262825220823288, -0.3895837366580963, -0.03592566400766373, -0.07840888947248459, -0.21917013823986053, 0.43496498465538025, 0.26889458298683167, -0.37661120295524597, -0.5005803108215332, -0.04849851131439209, 0.09870152175426483, -0.3637036085128784, 0.8542415499687195, -0.694209635257721, -0.19490012526512146, -0.5227203369140625, 0.6357511878013611, 0.16602486371994019, -0.11765488237142563, 0.8800461292266846, -0.7404041886329651, 0.2240489274263382, -0.38698169589042664, -0.20351815223693848, -0.924874484539032, -0.5957399606704712], [-0.169122114777565, 0.21604880690574646, -0.25912508368492126, 0.0623619370162487, -0.2035173922777176, 0.12294676154851913, -0.042441774159669876, 0.19951215386390686, 0.07742644101381302, 0.06487671285867691, 0.06307028234004974, 0.26901429891586304, 0.08914942294359207, -0.15984301269054413, 0.055783119052648544, -0.024074802175164223, 0.07502713054418564, 0.08735673129558563, 0.01882491074502468, -0.034136008471250534, -0.1881422996520996, 0.14212219417095184, -0.12913957238197327, -0.18909505009651184, -0.11101676523685455, -0.19827762246131897, 0.05134221166372299, -0.05600343644618988, -0.09191048890352249, -0.05083614960312843, -0.125882089138031, -0.14692115783691406, -0.07226584851741791, 0.028953999280929565, 0.039475858211517334, -0.15434899926185608, 0.06304693222045898, -0.037458647042512894, -0.10374928265810013, -0.016706135123968124, 0.021988749504089355, 0.009727866388857365, -0.01866573840379715, -0.28642040491104126, 0.14320746064186096, -0.042937569320201874, -0.4314099848270416, -0.012788147665560246, -0.1642150580883026, -0.1878805160522461, -0.09403069317340851, -0.11071909219026566, 0.1487577110528946, -0.23255325853824615, 0.23132175207138062, -0.25943663716316223, -0.017673779278993607, -0.10320309549570084, -0.15497024357318878, 0.09657876193523407, 0.12063200771808624, -0.09601929783821106, -0.0948016569018364], [-0.48433172702789307, -0.18742039799690247, 0.435962051153183, 0.35644611716270447, 0.43102583289146423, -0.17400237917900085, 0.3074638843536377, -0.1352868676185608, -0.2750822603702545, -0.34078696370124817, -0.06538230180740356, 1.2497341632843018, 0.32170629501342773, 1.3065398931503296, 0.6495704650878906, -0.6618378758430481, 0.735425591468811, -0.3738667666912079, -0.18671764433383942, 0.19131796061992645, -0.7008312344551086, 0.15126346051692963, -0.9684410691261292, 0.37646353244781494, 0.26465708017349243, -0.9439485669136047, 0.5663915276527405, 0.017542492598295212, -0.07599615305662155, 0.40188995003700256, 0.33183515071868896, 0.5318009257316589, -0.9901074171066284, -0.5237462520599365, 0.0486278235912323, -0.11583305895328522, 0.14789611101150513, 0.024173393845558167, 0.5595659017562866, 0.4715521037578583, -0.28768453001976013, -0.005864593666046858, -0.3170248568058014, 1.000881314277649, 0.3819248378276825, -0.6927048563957214, 0.46666431427001953, -0.22104918956756592, 0.1979149580001831, 0.15559500455856323, -0.49781933426856995, -0.05301208794116974, -1.1394214630126953, -0.30244800448417664, 0.0473293662071228, -0.24505802989006042, 0.009320162236690521, -0.025192808359861374, -0.6144115924835205, 0.1620483100414276, 0.44804033637046814, -1.129191517829895, -0.7056455612182617], [0.43672046065330505, 0.29274213314056396, -0.22612106800079346, 0.11113277077674866, 0.27955272793769836, 0.1824449598789215, -0.5391001105308533, -0.5306901335716248, -0.5753704309463501, 0.49464184045791626, -0.6781756281852722, -0.558199942111969, -0.9250219464302063, -0.051418934017419815, 0.5018290281295776, -0.6705523729324341, 0.031388115137815475, -0.27403712272644043, 1.3103630542755127, 0.885860800743103, 0.5540500283241272, 0.6821655631065369, 0.7391250729560852, -0.6648106575012207, 1.3607208728790283, -0.6824083924293518, 1.2519540786743164, -0.9733405709266663, 0.15166592597961426, -0.9104893803596497, -0.048634711652994156, -0.009523042477667332, 0.8900777697563171, -1.3069827556610107, 0.3390018939971924, -0.8743226528167725, -0.9005417823791504, 0.057960715144872665, -0.3098835051059723, -0.5731143951416016, -1.4476518630981445, -0.28683939576148987, -0.12268248200416565, 1.2242376804351807, 0.9058654308319092, -0.11456464231014252, -0.6269515752792358, -0.9273462891578674, 1.2204736471176147, -0.6801607012748718, -0.16735991835594177, -0.26651328802108765, -1.501552700996399, 0.21739211678504944, -0.5056957006454468, 0.3372533321380615, 0.1092071458697319, -0.04002080112695694, -0.10928725451231003, -0.18133221566677094, 0.7416953444480896, 0.7176757454872131, 0.6533767580986023], [-0.454135924577713, -0.3842519223690033, -0.04179173707962036, -0.0899253711104393, 0.4856411814689636, 0.343150794506073, 0.15213643014431, -0.12625569105148315, -0.03730035573244095, 0.3975701630115509, 0.2358330935239792, -0.25445160269737244, 0.1992424726486206, -0.2861652970314026, -0.11639045923948288, 0.14710059762001038, -0.11858215928077698, 0.2721191644668579, -0.557762622833252, 0.3730403780937195, 0.2219116985797882, 0.07840510457754135, 0.12005995959043503, 0.12128022313117981, -0.3077162206172943, -0.265267014503479, -0.14829272031784058, 0.14851146936416626, -0.13474151492118835, 0.003390589961782098, -0.5350828170776367, 0.09487061202526093, -0.27323880791664124, -0.2717663645744324, 0.005494760815054178, -0.5152541995048523, 0.12842287123203278, -0.4438084363937378, 0.155570849776268, -0.3815930187702179, 0.01794258877635002, 0.1460942029953003, -0.29154419898986816, 0.2604730427265167, 0.24694816768169403, -0.16612310707569122, 0.07003866881132126, 0.11754060536623001, 0.4437635838985443, 0.27566850185394287, -0.23404058814048767, -0.16811703145503998, -0.4053603708744049, -0.2632277011871338, 0.06843098998069763, -0.1778126060962677, 0.23297740519046783, -0.159857839345932, -0.35974037647247314, -0.27254220843315125, -0.1089293584227562, 0.3058149218559265, 0.13478384912014008], [0.08308453112840652, -0.11854889243841171, -0.7458029389381409, -0.23582574725151062, 0.5659897327423096, 0.5250993371009827, 0.6220612525939941, 0.20200498402118683, -0.2133641391992569, -0.5815965533256531, 1.34097421169281, -0.1786443144083023, 0.27941209077835083, 0.9068803191184998, 1.7273139953613281, 0.20536258816719055, -0.3216454088687897, -0.7416441440582275, 0.11321622133255005, -0.4566476047039032, -0.03340839594602585, 0.44082409143447876, 0.2608979344367981, -0.3321276009082794, -0.23132313787937164, -1.2273716926574707, -1.2260030508041382, -0.30905061960220337, -0.4818112850189209, 0.00506379920989275, -0.4987097680568695, -0.32823553681373596, 0.6996787190437317, 0.7444472312927246, 0.7398298382759094, 0.8990888595581055, -0.3065984547138214, -0.47515636682510376, -0.9106546640396118, 0.253786563873291, 0.6871916651725769, 0.7465068697929382, -0.7324392199516296, -0.20881828665733337, 1.0633001327514648, -0.35773155093193054, -0.5248029828071594, 0.3970039188861847, -0.17669802904129028, -0.28865712881088257, 0.3126384913921356, 0.6012226939201355, 0.0051670982502400875, -0.7698694467544556, 0.3072893023490906, 1.1051722764968872, -0.4981803596019745, -0.0645051971077919, -0.4265855848789215, -0.30287671089172363, 0.4131009578704834, 0.5921563506126404, 0.43651488423347473], [-1.3614842891693115, -0.35418078303337097, 0.6474733948707581, -0.37300074100494385, -0.5425702929496765, -0.3005867600440979, 0.48108792304992676, -0.8117649555206299, -0.7400693893432617, 0.4800780117511749, -1.0453863143920898, 0.175184428691864, -0.4159916639328003, -0.5132705569267273, -0.6802388429641724, 0.3935776650905609, 0.5764490962028503, 0.2877759337425232, -0.0774337649345398, -0.8103653788566589, -0.29681339859962463, -0.48204049468040466, 0.41507288813591003, -0.08874455839395523, 0.308175265789032, 0.3666643798351288, 0.09549824148416519, -0.5432896614074707, 0.42013874650001526, -0.493863582611084, 0.13799351453781128, -0.0975089967250824, 0.19405129551887512, 0.4080989956855774, 0.2616308629512787, -0.18316739797592163, -0.7282252311706543, -0.6976374983787537, 0.4374440312385559, 0.51972895860672, -0.47842350602149963, 0.39893200993537903, -0.15845344960689545, 0.4096963107585907, -0.32724466919898987, 0.43820610642433167, 0.818881630897522, 0.4155215919017792, 0.009049436077475548, 0.45623499155044556, 0.2917879819869995, -0.5031485557556152, -0.0815679281949997, 0.03162212669849396, 0.5827516913414001, -0.6771539449691772, 0.2785220146179199, 0.63004070520401, 0.3060503900051117, 0.4638219177722931, -0.16017325222492218, 0.401124507188797, -0.1396179348230362], [0.7705708146095276, 0.4120866656303406, 0.04611791670322418, -0.6290874481201172, 1.4471678733825684, 0.11979559063911438, 1.3003679513931274, -0.5141341090202332, -0.6995118856430054, -0.1996431052684784, -0.5190023183822632, 0.25279513001441956, -0.5991120338439941, 0.4844568967819214, 0.6686540246009827, 1.0085569620132446, -1.191021203994751, -0.3017873167991638, 0.20573168992996216, 0.027881501242518425, 0.4942764639854431, -0.9187659025192261, 0.3826654255390167, -0.6527281403541565, -0.7632617354393005, -0.3889240622520447, -0.7992775440216064, -0.315100759267807, 0.34773093461990356, 1.064391016960144, 0.28854861855506897, 0.3784123361110687, 1.0492494106292725, 1.4858542680740356, -0.2116830050945282, -0.8230116367340088, 1.001589059829712, 0.21443097293376923, -0.8375544548034668, -0.762241005897522, 0.23630139231681824, 1.0280550718307495, -1.149957299232483, 0.17509518563747406, -0.3913966417312622, -1.1364165544509888, -0.2253861278295517, 0.9910032749176025, 0.7528477907180786, -0.5256937146186829, 0.40730854868888855, -0.9069051742553711, 0.2352660447359085, -1.2141664028167725, -0.4789450466632843, -0.31151241064071655, -0.06491024792194366, 0.9545720815658569, 0.029438180848956108, 0.3312113881111145, 1.2102203369140625, 0.5112428665161133, 0.4031568765640259], [0.12474005669355392, -0.3231735825538635, 0.6963919401168823, 0.3390764594078064, -0.976913571357727, 0.918603241443634, 0.3515273928642273, -0.3419221341609955, 0.6942123174667358, -0.2886938452720642, 0.5722634792327881, -0.7512418031692505, 0.33170193433761597, 1.3106505870819092, -0.7059422135353088, -0.6811246275901794, -0.2523702383041382, -0.5658888816833496, 0.18785621225833893, 0.3666125237941742, 0.007541423197835684, 0.43465542793273926, 0.11487078666687012, -0.020862098783254623, -0.9026651978492737, 0.5005889534950256, -0.4830661714076996, 0.06764931231737137, 0.23716288805007935, -0.5304186940193176, 0.2925925850868225, -0.17561030387878418, 0.806903064250946, 0.5815485119819641, -1.018310546875, -0.2446063756942749, -0.20721186697483063, -0.8322868943214417, 0.6391549706459045, -0.612654983997345, -0.5124489665031433, 0.19954776763916016, 0.28759530186653137, -0.6350868940353394, -0.6427461504936218, -0.031804073601961136, 0.08774858713150024, 0.7651355266571045, 0.005917768459767103, 0.584643542766571, -0.7079355716705322, 0.515652596950531, -0.6811016798019409, -0.6040704846382141, 0.3341435194015503, -0.5856563448905945, 0.56935715675354, -0.7688234448432922, 0.24949996173381805, 0.7241156101226807, 0.10660812258720398, 0.6060574054718018, -0.882038950920105], [0.04692184925079346, 0.27845633029937744, 0.22885333001613617, -0.05536598339676857, -0.06383358687162399, -0.5871261954307556, -0.3061395585536957, 0.10496705770492554, -0.7227323651313782, -0.7956520915031433, 0.2597678303718567, 0.01459671463817358, -0.21520361304283142, -0.22483542561531067, -0.5103116035461426, -0.41719603538513184, 0.15310363471508026, -0.23605722188949585, 0.3987005949020386, 0.557653546333313, 0.5945692658424377, -0.10692154616117477, -0.16560661792755127, -0.45159152150154114, 0.7150571346282959, -0.6569221615791321, -0.5822065472602844, -0.434225857257843, 0.31363531947135925, 0.7278859615325928, 0.42729437351226807, 0.6263529062271118, -0.08612455427646637, -0.37686946988105774, -0.3583642542362213, 0.42225897312164307, 0.1715439260005951, -0.07717711478471756, -0.18562805652618408, -0.10018516331911087, -0.22357389330863953, 0.10741837322711945, -0.0402836836874485, 0.29183152318000793, -0.4130176901817322, 0.5151010751724243, -0.27903252840042114, 0.43735048174858093, 0.3454422354698181, -0.12588925659656525, 0.7855585813522339, 0.1216529980301857, 0.8394003510475159, 0.13486799597740173, 0.3018641471862793, 0.00904723908752203, -0.31946784257888794, 0.17638836801052094, 0.10223438590765, 0.05740463733673096, -0.6566188335418701, -0.19860775768756866, 0.5423269271850586], [-0.07455846667289734, 0.24555929005146027, -0.33292150497436523, -0.3538329601287842, 0.24446195363998413, -0.5244664549827576, -0.18322788178920746, 0.3167610764503479, 0.36055952310562134, 0.05758869647979736, 0.489594429731369, -0.37436074018478394, 0.012659639120101929, 0.09503564983606339, -0.10830005258321762, 0.10736530274152756, 0.18491145968437195, -0.01300389226526022, 0.2116425484418869, 0.03921372815966606, 0.3849712908267975, 0.04678412154316902, -0.009292815811932087, -0.03953302279114723, 0.1285005807876587, -0.2407081127166748, -0.019209034740924835, -0.47750577330589294, -0.3297194540500641, -0.268417626619339, 0.3557925522327423, -0.6536504030227661, -0.11786041408777237, 0.09693730622529984, 0.3416881561279297, 0.21233265101909637, -0.23751312494277954, 0.6394040584564209, -0.31368768215179443, -0.05224846303462982, 0.5061581134796143, 0.6694839000701904, -0.1397644728422165, -0.8323879241943359, 0.2739598751068115, 0.4476655423641205, -0.5022825002670288, -0.03424286097288132, -0.14994053542613983, 0.20467358827590942, 0.2583465278148651, 0.10075901448726654, -0.05439085513353348, -0.21701094508171082, -0.24322302639484406, -0.6115304827690125, 0.023184074088931084, 0.2837713360786438, -0.5423005223274231, -0.024267464876174927, -0.27933162450790405, -0.2955889403820038, -0.4063171446323395], [-0.5616230368614197, -0.8328065276145935, 0.42322295904159546, 0.42359915375709534, 0.4513234794139862, -0.07429805397987366, -0.2152063399553299, -0.6640632748603821, 0.7463350296020508, -0.5938429236412048, 0.7219716310501099, -0.5547890663146973, -0.6227802038192749, 1.1703903675079346, 0.31075313687324524, -0.18173100054264069, 0.2067541927099228, 0.9219856262207031, 0.7782301902770996, -0.8250066041946411, -0.789834201335907, -0.29370641708374023, -0.46180135011672974, -1.1808593273162842, -0.2257867455482483, 0.884242832660675, -1.4799960851669312, 0.17886024713516235, 0.4466109871864319, 1.045287013053894, 0.11351686716079712, -0.5758825540542603, 0.43694546818733215, -0.5805901885032654, -0.5167756676673889, 1.0504552125930786, 0.7189171314239502, -0.39285099506378174, 1.024117350578308, -0.05601901561021805, 0.5413932800292969, 1.0021108388900757, -0.09557357430458069, -0.6940434575080872, 0.5234350562095642, -0.3347998857498169, -0.3897011876106262, -0.3451192378997803, 0.8537202477455139, 0.6965200304985046, 0.25733599066734314, -0.130193829536438, 0.3590541183948517, -1.0773372650146484, 0.23620250821113586, -1.0116733312606812, -0.3271258473396301, -0.2776099741458893, -0.4529256522655487, 0.8656077980995178, 0.22225698828697205, 0.7771069407463074, -0.705432653427124], [-0.16081614792346954, -0.22171863913536072, 0.2754655182361603, -0.05255395174026489, -0.3274947702884674, -0.6306648254394531, 0.5067846775054932, 0.4559642970561981, 0.2551240921020508, 0.3901425302028656, 0.43794602155685425, 0.6413806080818176, 0.221101313829422, -0.08231570571660995, 0.3274524211883545, -0.23079891502857208, 0.10323566198348999, 0.24810723960399628, -0.4368288516998291, -0.2987211346626282, -0.4398294985294342, -0.35649803280830383, 0.1704176962375641, 0.346525102853775, -0.0596793033182621, 0.000661582569591701, -0.27460989356040955, 0.21884404122829437, -0.2096610963344574, -0.12161541730165482, -0.20401105284690857, 0.6057904958724976, 0.11469083279371262, -0.25973352789878845, 0.01136908121407032, -0.7295839190483093, 0.10536213964223862, 0.6265970468521118, -0.05782165750861168, 0.1334276795387268, -0.5825841426849365, 0.17512722313404083, 0.3521016538143158, -0.5159202218055725, -0.1881263107061386, 0.4339582622051239, 0.1298021674156189, 0.14444802701473236, -0.5795431137084961, 0.6764687895774841, -0.3615192174911499, 0.01501782052218914, 0.6720885038375854, -0.18619705736637115, 0.057060353457927704, -0.5223445296287537, 0.5861316919326782, 0.11208882182836533, -0.23067781329154968, -0.47784435749053955, 0.17323555052280426, -0.7460794448852539, -0.26373982429504395], [0.42752805352211, -0.4485470652580261, 0.11456048488616943, 0.033094629645347595, -0.2090621292591095, 0.06073387339711189, 0.347881555557251, -0.24023032188415527, 0.14210037887096405, 0.12162654846906662, -0.22004331648349762, 0.23809918761253357, 0.1282937228679657, 0.3845409154891968, -0.1301315426826477, 0.274179071187973, 0.033620625734329224, 0.1621471643447876, 0.21140554547309875, 0.26997148990631104, -0.3061341643333435, 0.14291717112064362, -0.1477370411157608, 0.17726609110832214, 0.23277361690998077, -0.19448573887348175, -0.05811389163136482, 0.1095285415649414, 0.34606441855430603, 0.2999820113182068, 0.168666273355484, 0.02655184641480446, 0.20157764852046967, -0.2498142570257187, 0.21855685114860535, -0.02684229612350464, 0.4411885142326355, 0.07232177257537842, -0.05481892451643944, 0.2540416121482849, -0.05631182715296745, 0.028266314417123795, 0.02427971363067627, -0.10941282659769058, 0.05120182782411575, -0.5491814017295837, -0.09261302649974823, 0.14104998111724854, 0.0386430062353611, -0.25845128297805786, 0.08220010995864868, 0.015081135556101799, 0.5722878575325012, -0.5113185048103333, -0.2241683304309845, -0.13457530736923218, -0.2865670919418335, -0.21523220837116241, -0.21072356402873993, 0.3088078498840332, -0.2561323046684265, 0.23342108726501465, -0.1423313021659851], [0.39604222774505615, -0.6675477027893066, 0.7495889067649841, 0.8226771354675293, 1.2285696268081665, -0.9816035032272339, 0.7242395877838135, -0.5559436678886414, 0.0812336876988411, 0.034360114485025406, -0.88914954662323, -0.9280094504356384, -0.881558895111084, 0.3945581614971161, -0.33145761489868164, 0.20973487198352814, 0.7817461490631104, -0.026191730052232742, 0.7636750936508179, -0.19049184024333954, 0.6762318015098572, 0.5341804623603821, 0.5910515189170837, 0.33658310770988464, -0.012310991063714027, 0.646036684513092, -0.07584942877292633, 0.17870491743087769, -0.4239914119243622, 0.3216763138771057, -1.1562854051589966, -0.07282431423664093, -0.07535040378570557, -0.8708161115646362, -0.3966701626777649, -0.28699061274528503, -0.8262796401977539, 0.009568079374730587, 1.0965909957885742, 0.1670977622270584, -1.1995974779129028, -0.20531009137630463, -0.17202363908290863, 0.08039616793394089, -0.695365846157074, 0.5877927541732788, -0.6208093166351318, 0.8848668336868286, 0.5233855843544006, -0.15396258234977722, -0.22361595928668976, 1.087088704109192, 0.438151478767395, -0.25997841358184814, -0.26446428894996643, 1.1959986686706543, -0.17032991349697113, -0.6766420602798462, 0.153079554438591, -0.05745106190443039, 0.12246708571910858, -0.641788899898529, -0.7352436780929565], [0.13508056104183197, 0.9050668478012085, 0.5550405383110046, -0.09257578104734421, -0.3062382638454437, -0.3617246448993683, 0.2612122893333435, 0.6052898168563843, 0.3577554523944855, -0.19932594895362854, 0.7579565644264221, -0.42866218090057373, -0.006452926434576511, 0.31014469265937805, -0.41176363825798035, -0.3523705005645752, -0.9128524661064148, 0.03834949806332588, -0.17173835635185242, -0.06907983124256134, -0.047146569937467575, 0.2529852092266083, -0.17860160768032074, 0.5115384459495544, 0.19202589988708496, -0.6736370921134949, -0.3689603805541992, 0.3422009348869324, -0.007193411234766245, -0.4996521472930908, -0.04291222617030144, -0.3208942115306854, 0.782163679599762, 0.450138121843338, 0.2546102702617645, 0.5356886982917786, -0.027977922931313515, 0.39139142632484436, -0.11589185893535614, 0.028150010854005814, -0.5544474720954895, -0.2828077971935272, -0.3304327726364136, 0.13334618508815765, 0.3245292007923126, -0.3718346655368805, -0.07557082921266556, 0.2724210321903229, -0.34936949610710144, 0.4364945888519287, -0.48232951760292053, 0.010247395373880863, -0.6353509426116943, -0.2519969046115875, -0.1445842832326889, 0.6083346009254456, 0.8491844534873962, 0.14194461703300476, 0.45540890097618103, -0.13389705121517181, 0.2884659767150879, 0.3618711233139038, -0.4822155833244324], [-0.8590217232704163, 0.10344208776950836, 0.2522546052932739, -0.45202207565307617, -0.6022899746894836, 0.5947266817092896, 0.4924601912498474, 0.08033651858568192, -1.2447503805160522, 1.1614651679992676, -1.0069793462753296, 0.27589282393455505, -0.4143313765525818, -0.20317669212818146, 0.38412126898765564, -0.2863873839378357, 0.04435786232352257, 0.5579398274421692, -1.203692078590393, 0.18582963943481445, -0.5746610760688782, -0.7390177845954895, 0.6829881072044373, -0.019024958834052086, -1.4242247343063354, 0.9666486382484436, -0.7728814482688904, 0.9456794261932373, -0.20180834829807281, 0.7532431483268738, 0.6337831020355225, -0.3226443827152252, -0.06663848459720612, 0.44071489572525024, -0.656349241733551, 0.11899968236684799, 1.2496980428695679, -0.2818733751773834, 0.5643818974494934, 0.1025683581829071, -0.546006977558136, -0.7997543215751648, 0.9178322553634644, -0.4990716278553009, 0.40473154187202454, -0.8524634838104248, -0.0689009577035904, -0.5318353176116943, 0.6887704133987427, 0.3052856922149658, 0.9201729893684387, -0.35668590664863586, -1.1988712549209595, -0.6505641341209412, -0.45041364431381226, 1.1238234043121338, -0.6595233082771301, 0.6530969738960266, 0.9568330645561218, 0.6004642248153687, -0.7486914992332458, -0.4212735891342163, 0.02171747386455536], [0.38035306334495544, -0.0562305711209774, 0.37985414266586304, 0.45676031708717346, -0.06915893405675888, 0.7107192873954773, -0.1815827637910843, 0.30518558621406555, 0.40439414978027344, -0.11073479056358337, 0.11644381284713745, -0.17702028155326843, 0.046702124178409576, 0.32974815368652344, -0.37423306703567505, -0.31299901008605957, 0.14595146477222443, 0.06565539538860321, -0.08445543050765991, 0.14729559421539307, 0.003491245675832033, 0.3006853759288788, -0.08350033313035965, 0.12614931166172028, 0.10989812761545181, -0.4801218807697296, 0.2443266361951828, -0.04694065824151039, -0.38999903202056885, 0.2753625810146332, -0.6462933421134949, -0.10687240213155746, -0.12559974193572998, 0.3455868065357208, 0.2527579069137573, -0.3299737274646759, 0.2053769826889038, 0.12890103459358215, 0.4243543744087219, 0.11697696894407272, -0.5479966998100281, 0.40985193848609924, -0.23160088062286377, -0.22965794801712036, 0.2416050136089325, 0.5736480355262756, -0.005650391336530447, -0.4979521930217743, 0.109847292304039, 0.43591395020484924, -0.36448267102241516, -0.347244530916214, -0.6372188925743103, -0.2564307451248169, -0.4101701080799103, 0.005623806733638048, 0.2818750739097595, 0.5045321583747864, 0.12433016300201416, -0.048177190124988556, 0.4801216125488281, 0.133014515042305, -0.6557862162590027], [-0.10236215591430664, -1.031938076019287, 0.9671175479888916, -0.39584556221961975, 0.04032311215996742, 0.5889767408370972, 0.6457951068878174, 0.487207293510437, -0.30999964475631714, 0.6198266744613647, 1.1808786392211914, -0.25189223885536194, -0.6278166770935059, -0.4423682689666748, -0.34229588508605957, 0.30256837606430054, -0.7996475100517273, 0.019842859357595444, -0.3487645387649536, 0.7422631978988647, 0.36428484320640564, -0.8626974821090698, -0.17469628155231476, -0.11331423372030258, -0.7539212703704834, -0.8615146279335022, 0.7307470440864563, -0.16898682713508606, -0.5791551470756531, 0.6973665952682495, -0.23194684088230133, -0.37784433364868164, -0.8439059853553772, 0.7239853739738464, 0.3019721806049347, -0.5561323165893555, 1.1091498136520386, 0.5168174505233765, -0.9094859957695007, 0.48371070623397827, -1.1318899393081665, -0.14234834909439087, 0.790560781955719, 0.13415281474590302, -0.6193932294845581, 0.4079052805900574, -0.8306515216827393, -0.3147312104701996, -0.2012268453836441, 0.8554002642631531, 0.9592683911323547, 0.07931322604417801, 0.028553079813718796, -0.8041612505912781, -0.057495228946208954, 0.07080739736557007, 0.4450078010559082, -0.9100657105445862, 0.3164248466491699, 0.4647164046764374, 0.2753731608390808, -0.28036758303642273, 0.761869490146637], [-1.5013916492462158, 0.05489417165517807, 1.2914257049560547, 0.41880589723587036, 0.7925811409950256, -0.6034925580024719, 1.0024538040161133, -1.170392394065857, -0.4633985757827759, -0.05489051714539528, -1.2007006406784058, -0.6682648062705994, -1.5190141201019287, 1.3978434801101685, 0.6466378569602966, 0.38390403985977173, 0.4389079213142395, -0.19690510630607605, -1.072832703590393, -0.3434891998767853, -0.5857896208763123, 0.5259592533111572, -0.447268009185791, -0.1447131335735321, -1.2303391695022583, -0.09557515382766724, -0.2670735716819763, 0.22457759082317352, 1.137647271156311, 1.5298242568969727, 0.23788800835609436, 0.543383002281189, 0.5560883283615112, 0.988225519657135, 0.18816567957401276, 0.538896918296814, 1.8050581216812134, 0.2698574364185333, -0.0066556064411997795, 0.22825102508068085, -0.6519489288330078, 0.5147472023963928, -0.37898316979408264, -1.2058871984481812, -0.713397204875946, -1.1365597248077393, -1.1288480758666992, 0.8660464882850647, 0.3040693402290344, 0.7924624085426331, -0.41900134086608887, 0.07197879254817963, -0.11544644087553024, -0.2184879630804062, -0.3990239202976227, -0.1278175562620163, -1.0077705383300781, -0.0723896250128746, 0.9869551658630371, 0.2546522617340088, 0.021382834762334824, -0.4378408193588257, 0.14222288131713867], [-0.5467756390571594, 0.5825899839401245, -0.08576624095439911, -0.3651070296764374, -0.8491493463516235, -0.27931714057922363, -0.001900797593407333, 0.14078867435455322, -0.7441779971122742, 0.34983959794044495, 0.6928576827049255, -0.5312118530273438, 0.012763145379722118, 0.5366872549057007, -0.6864812970161438, -0.4546383321285248, 0.45810580253601074, -0.2400045394897461, 0.3420579135417938, -0.19489644467830658, 0.19022688269615173, 0.5885758996009827, -0.36889925599098206, -0.09528401494026184, -0.3191703259944916, -0.4728202521800995, 0.3846672773361206, -0.46106618642807007, 0.06213442236185074, 0.3113326132297516, -0.09469375014305115, -0.050823915749788284, 0.020360078662633896, -0.16592156887054443, 0.18508005142211914, -0.319717139005661, 0.27868062257766724, 0.010186486877501011, 0.14858949184417725, 0.06532430648803711, 0.4128204882144928, -0.2744317650794983, -0.49602702260017395, -0.4387669861316681, -0.12343812733888626, -0.2892044186592102, 0.2537885308265686, -0.28301870822906494, -0.3912442624568939, -0.687860369682312, -0.30124005675315857, 0.10764756053686142, -0.29263630509376526, 0.16289134323596954, 0.2254215031862259, -0.09550593048334122, 0.4164530038833618, 0.1206836849451065, 0.5875983238220215, 0.0356232225894928, 0.4479822516441345, 0.6094979643821716, 0.23523040115833282], [0.11617030948400497, -0.46254464983940125, -0.10992175340652466, 0.2956322133541107, 0.07549872249364853, 0.23632796108722687, -0.02376532182097435, -0.15854568779468536, 0.23682016134262085, -0.062471501529216766, 0.27453407645225525, -0.25240403413772583, -0.2997514307498932, 0.03911544010043144, 0.21973863244056702, 0.09939589351415634, -0.1030924916267395, 0.2734835743904114, -0.1109689325094223, 0.12746261060237885, -0.20408515632152557, -0.6214791536331177, -0.35960105061531067, -0.26813289523124695, -0.7758177518844604, 0.23289258778095245, 0.11712446808815002, 0.11358312517404556, 0.41692376136779785, 0.10118820518255234, 0.33630821108818054, -0.24392186105251312, 0.2980494201183319, -0.2963991165161133, 0.3533436357975006, -0.2359226495027542, 0.029044024646282196, -0.10562296956777573, 0.2586311995983124, -0.17979435622692108, -0.03072778321802616, -0.10010568052530289, -0.1043957769870758, -0.309299111366272, -0.10836093127727509, 0.1859283149242401, 0.18148259818553925, -0.008472283370792866, 0.5396345853805542, -0.4077956974506378, -0.1562989503145218, 0.07956233620643616, 0.0014701047912240028, 0.18095147609710693, 0.5202938318252563, 0.10621064901351929, -0.29536089301109314, -0.11937400698661804, -0.12652187049388885, -0.2586573362350464, 0.09342523664236069, 0.3274928331375122, 0.40384355187416077], [-0.0027066494803875685, 0.08727381378412247, -0.37154465913772583, -0.1931551992893219, 0.5259171724319458, 0.32711195945739746, 0.034753475338220596, -0.47996488213539124, 0.12789694964885712, 0.17416785657405853, -0.9922277927398682, 0.18743085861206055, -0.28051552176475525, -0.7619549036026001, 0.17629632353782654, 0.447918176651001, 0.3746718764305115, -0.4067367613315582, -0.6277446150779724, -0.0376129224896431, -0.12694266438484192, 0.4532400071620941, -0.3113262951374054, 0.642713725566864, 0.08009764552116394, -0.09735732525587082, 0.8063380122184753, 0.2264149934053421, 0.2618255019187927, -0.5487483739852905, -0.3334667980670929, -0.027435967698693275, 0.2953738272190094, -0.36982977390289307, -0.3970508873462677, -0.9230020046234131, 0.2665970027446747, 0.5227591395378113, 0.1493833363056183, -0.3845931589603424, 0.49345239996910095, -0.33570900559425354, 0.25028175115585327, 0.08836571872234344, -0.7172213196754456, -0.181041419506073, 0.22377492487430573, -0.3037443161010742, 0.039844293147325516, 0.5783032774925232, 0.7973487377166748, 0.054705727845430374, -0.5803412795066833, -0.5067139863967896, 0.1945401281118393, -0.6464899778366089, 0.33917370438575745, 0.3096371591091156, -0.030457958579063416, -0.38842934370040894, -0.12999819219112396, 0.8949970006942749, 0.18639463186264038], [-0.19401858747005463, -0.03470602259039879, 0.07783369719982147, -0.14769555628299713, 0.09134766459465027, 0.05490471050143242, -0.055371422320604324, -0.20352484285831451, -0.11619172990322113, 0.26000678539276123, 0.021408943459391594, 0.08187975734472275, 0.15973903238773346, -0.020943937823176384, 0.25862133502960205, 0.04920320212841034, -0.1915409415960312, 0.08287763595581055, -0.021723873913288116, -0.0687834694981575, -0.13109315931797028, 0.05102779343724251, -0.055416539311409, -0.11028030514717102, 0.17316707968711853, 0.10553020983934402, -0.15536858141422272, 0.0021055920515209436, -0.19385123252868652, -0.05066665634512901, 0.20132246613502502, -0.04813041538000107, 0.06272392719984055, -0.02448631078004837, 0.16451989114284515, -0.10080690681934357, 0.03381127119064331, -0.052781760692596436, 0.15584082901477814, -0.061041735112667084, 0.10422205924987793, 0.053084541112184525, 0.23531559109687805, -0.05071425065398216, 0.036732953041791916, 0.2503242492675781, -0.06408660858869553, -0.13118287920951843, 0.11430460214614868, 0.11781463027000427, -0.23444640636444092, 0.007909406907856464, -0.25190117955207825, -0.12197213619947433, 0.1310494840145111, 0.04837264493107796, -0.08667349070310593, 0.2612951993942261, 0.17859287559986115, 0.12381409108638763, -0.1514565348625183, -0.10892882198095322, -0.04790838435292244], [-0.1934211105108261, -0.14113710820674896, 1.4295330047607422, 0.24294133484363556, -1.1321430206298828, -0.1376505047082901, 0.8268511891365051, -0.3379842936992645, 0.9298330545425415, -0.7214769721031189, -0.4604136049747467, 0.7001466155052185, 0.3990199863910675, 0.4746132791042328, -1.0811799764633179, 0.6275678277015686, -0.9633156657218933, -0.04471765086054802, -0.6847021579742432, -0.4874541163444519, -0.6203540563583374, -0.7752134799957275, -0.03276713564991951, 0.05320587009191513, 0.8619979023933411, 0.2571779787540436, 1.4703677892684937, -0.39362114667892456, 0.008642029017210007, 0.9697785377502441, -0.4493100047111511, -0.7355655431747437, 0.5441224575042725, 0.19525595009326935, -0.32513242959976196, -0.41630423069000244, -0.059073109179735184, 0.20942872762680054, -0.8945432901382446, 0.26364046335220337, -0.07480981945991516, 